"InputNeurons",
"224",
"HiddenLayerNeurons 32",
"-0.011356082744896412 -0.01627320796251297 -0.03199762478470802 -0.034120991826057434 0.013106942176818848 0.05228191241621971 0.017569830641150475 0.006270824931561947 7.340879440307617 13.391404151916504 10.578736305236816 22.959562301635742 -2.737915515899658 16.093978881835938 15.563990592956543 19.83142852783203 8.366477966308594 15.673922538757324 6.683650970458984 24.450551986694336 -2.498553514480591 14.879987716674805 15.896443367004395 15.87032699584961 9.225695610046387 16.218894958496094 6.865777969360352 13.80850601196289 -3.888977289199829 17.489013671875 22.244415283203125 21.091293334960938 6.7111310958862305 5.824450969696045 28.20655632019043 17.715755462646484 20.00465965270996 9.554900169372559 26.414119720458984 24.215900421142578 7.848894119262695 -42.31359100341797 47.56624221801758 32.658485412597656 45.35492706298828 22.969724655151367 69.45580291748047 7.485632419586182 8.417328834533691 -42.67735290527344 29.442623138427734 -140.0033721923828 46.8931884765625 -23.278226852416992 49.59929656982422 -50.91190719604492 0.02169867418706417 -0.05778955668210983 0.04295608773827553 0.027787618339061737 0.029106974601745605 0.03661913052201271 -0.031010013073682785 -0.023785315454006195 7.079097270965576 -116.123779296875 14.00667667388916 -5.255886554718018 6.885108947753906 8.301548957824707 4.582455635070801 -0.7228614687919617 -35.8393440246582 -87.86486053466797 1.5742337703704834 -1.839112401008606 -6.118767738342285 -4.112818241119385 13.345051765441895 10.196514129638672 -62.63168716430664 1.2482514381408691 -25.966413497924805 -32.37822723388672 13.185068130493164 8.564884185791016 21.018056869506836 26.64288330078125 -107.11736297607422 -58.03083419799805 -39.48428726196289 -44.82185363769531 -30.8151798248291 12.13061237335205 16.01592445373535 53.48033142089844 -102.72405242919922 -118.82283020019531 -29.08355140686035 -43.74510192871094 -81.28608703613281 -45.161705017089844 35.606163024902344 24.73105239868164 -73.33341217041016 -2.7484772205352783 -5.137810230255127 -32.15913009643555 9.366527557373047 30.69460678100586 -101.82892608642578 -21.390623092651367 -0.033342014998197556 0.038452792912721634 0.00911510456353426 -0.017522726207971573 -0.03677215427160263 0.018385933712124825 0.02057144232094288 0.026482583954930305 -65.75910949707031 -37.353515625 -80.4955825805664 -70.50376892089844 -60.72834777832031 -53.090328216552734 -32.20852279663086 13.995786666870117 -39.581573486328125 -28.564579010009766 -55.82091522216797 -5.994842052459717 -54.961952209472656 -11.064713478088379 -58.26926803588867 23.014301300048828 -7.002026081085205 -11.633991241455078 -22.989395141601562 -0.39973145723342896 -44.71426773071289 -43.1408576965332 -6.539976119995117 11.66433048248291 -7.900302886962891 -7.79279088973999 -13.836763381958008 -54.408607482910156 -6.121567726135254 -8.26289176940918 -4.65854024887085 6.0472540855407715 -3.684791326522827 -6.175001621246338 -15.520264625549316 -15.24748706817627 -6.3526153564453125 -13.159055709838867 -6.478166580200195 7.679218769073486 -5.476684093475342 -2.3998701572418213 -9.720383644104004 -12.878375053405762 -10.420827865600586 -16.389196395874023 -12.093282699584961 7.087518692016602 -0.03847905248403549 -0.05188564583659172 0.02653149701654911 0.0028035943396389484 0.007190305273979902 -0.04714540019631386 -0.04060131311416626 0.03660208359360695 -18.94978141784668 -108.80633544921875 -114.09996032714844 -86.85807037353516 -120.54825592041016 -101.79439544677734 -39.53055953979492 -80.38082122802734 -12.216959953308105 -2.4745140075683594 -116.12737274169922 -113.03390502929688 -97.4021224975586 -119.69587707519531 -31.44316864013672 -100.30803680419922 -80.59962463378906 -27.077619552612305 -94.20525360107422 -31.332284927368164 -42.29707717895508 -44.98482131958008 -136.13681030273438 -50.97275924682617 -74.4650650024414 -67.89000701904297 -121.5989990234375 -101.45317077636719 15.003718376159668 -5.333769798278809 0.5910764932632446 -11.379390716552734 -50.74604415893555 -15.41028881072998 -79.31937408447266 -28.464677810668945 11.530613899230957 -3.0495147705078125 2.140622138977051 -3.7441020011901855 -30.560649871826172 -66.68046569824219 -174.78643798828125 -13.598172187805176 -1.0786497592926025 3.7763009071350098 -8.574209213256836 -0.5023513436317444 -29.467138290405273",
"-0.00993069726973772 0.046657122671604156 -0.04290081933140755 -0.059315428137779236 0.05368242412805557 -0.026994215324521065 -0.04804682359099388 -0.00700882263481617 0.31605976819992065 -0.953944742679596 -13.820566177368164 13.676782608032227 -12.736820220947266 -2.3224809169769287 -6.750009536743164 -2.364894390106201 -2.3131680488586426 3.1583774089813232 -16.390268325805664 12.18325138092041 -12.212220191955566 -7.926645755767822 -4.926623344421387 -5.32189416885376 -5.572994232177734 -4.509255409240723 -17.388568878173828 20.305261611938477 -9.125676155090332 -3.1254091262817383 -5.133862018585205 -3.5458157062530518 -12.211516380310059 -5.295357704162598 -9.030570030212402 -6.2555413246154785 -4.897451400756836 -12.880361557006836 -2.28971529006958 -6.558765411376953 23.862506866455078 -18.6990966796875 49.60323715209961 -111.82974243164062 26.49486541748047 -33.66548156738281 45.63876724243164 -12.76001262664795 51.9160270690918 66.96654510498047 59.63788986206055 15.224372863769531 14.13592529296875 -32.993141174316406 15.550650596618652 -112.55162811279297 -0.04726357012987137 0.057126112282276154 0.04354846850037575 -0.056185051798820496 -0.0090787997469306 0.002142889192327857 0.029529796913266182 0.030874503776431084 13.884057998657227 12.485522270202637 10.223487854003906 15.583749771118164 7.615516185760498 1.9825042486190796 -0.7152639031410217 3.2637083530426025 -3.536778450012207 6.215058326721191 18.452484130859375 2.7063870429992676 18.219036102294922 10.865991592407227 11.598255157470703 -0.17337661981582642 2.7777163982391357 12.262704849243164 29.134260177612305 5.2163405418396 9.130093574523926 6.021650314331055 -6.759709358215332 21.620718002319336 -32.35557556152344 4.77283239364624 14.08427906036377 24.40888023376465 7.0628342628479 9.742112159729004 8.930391311645508 31.726842880249023 -57.78491973876953 -103.81858825683594 -68.77508544921875 35.40837097167969 40.365440368652344 23.155542373657227 27.839282989501953 -26.644729614257812 -39.55374526977539 61.560508728027344 -10.007206916809082 68.89603424072266 2.2135908603668213 -80.70726013183594 34.071224212646484 -74.38890075683594 0.03882518783211708 -0.048983875662088394 0.04472198337316513 0.03665692359209061 0.018670912832021713 -0.02120187319815159 -0.05154094472527504 -0.030114412307739258 -13.165700912475586 -24.4797420501709 -33.30278396606445 -87.97660064697266 -14.307567596435547 -0.1708059310913086 -86.3173599243164 2.51501202583313 10.89759635925293 8.56360149383545 -76.59114837646484 -123.70616149902344 -23.104677200317383 7.8052978515625 7.059419631958008 -1.741187334060669 12.630114555358887 3.2980477809906006 -9.075925827026367 -8.567292213439941 15.89688777923584 7.702495098114014 0.8176426887512207 7.088198184967041 4.334211349487305 4.054074287414551 22.46628761291504 9.876166343688965 4.749748706817627 7.190868854522705 10.607695579528809 4.832585334777832 0.9999157190322876 15.135318756103516 -4.300495147705078 7.933016300201416 0.1450459510087967 13.284360885620117 14.34204387664795 8.344521522521973 4.470297336578369 18.371505737304688 -2.2433183193206787 19.61606788635254 -3.9356465339660645 14.69233226776123 9.680726051330566 9.27375602722168 0.007751216646283865 -0.002446674508973956 -0.05860624834895134 -0.04213745892047882 0.052062127739191055 0.0003824715968221426 -0.028848111629486084 -0.05677572265267372 16.51464080810547 -87.51335144042969 -15.131781578063965 -1.428527593612671 19.260046005249023 -5.837897777557373 13.525589942932129 1.6218198537826538 -50.34257888793945 -53.755218505859375 -16.648422241210938 31.019115447998047 25.038681030273438 28.107290267944336 -2.6579694747924805 -2.6638903617858887 18.29952621459961 11.26866626739502 -8.535785675048828 12.480873107910156 -61.55344772338867 18.90221405029297 26.373292922973633 19.733362197875977 17.167570114135742 10.60883617401123 12.606654167175293 0.8565206527709961 10.885211944580078 -0.15527485311031342 12.994187355041504 10.817681312561035 17.031766891479492 17.73505210876465 18.74134063720703 -5.399295330047607 17.177980422973633 -7.559792518615723 9.604947090148926 -74.45660400390625 -21.20892906188965 13.83824634552002 -3.7558352947235107 -0.22080639004707336 0.3430980145931244 -1.1594383716583252 3.1188714504241943 7.528125762939453 -42.692108154296875",
"-0.011330037377774715 0.03314458578824997 -0.04360004886984825 -0.025358164682984352 -0.051751501858234406 0.05871785432100296 0.052363332360982895 -0.01309298723936081 -10.28219985961914 -7.404326438903809 11.337437629699707 -3.4675889015197754 -1.0620763301849365 -27.679540634155273 -15.079268455505371 -3.341916799545288 -12.969287872314453 -5.450248718261719 -1.3682373762130737 5.645289897918701 -1.6654211282730103 -19.853925704956055 -7.560898303985596 -6.9103312492370605 -9.252839088439941 -19.240324020385742 0.25690826773643494 -10.194183349609375 1.3611377477645874 2.017401933670044 -3.4835855960845947 -3.119152545928955 -18.31409454345703 -2.9514057636260986 -11.262112617492676 5.330721378326416 -7.752874374389648 6.481265544891357 26.776819229125977 5.685417652130127 -29.72002410888672 -36.40907287597656 16.957496643066406 -5.1683502197265625 39.28046417236328 -2.652078866958618 23.453418731689453 -12.442499160766602 43.348472595214844 -5.801058769226074 44.37944030761719 -24.89019775390625 14.205564498901367 36.35203170776367 48.76185989379883 19.158063888549805 -0.05170672759413719 -0.04645731300115585 0.04927865415811539 -0.06611574441194534 0.053417786955833435 0.028905682265758514 0.007795326877385378 0.011489934287965298 -5.327849388122559 10.161507606506348 -3.8932690620422363 -38.204227447509766 -2.7242331504821777 0.7360545992851257 3.997110366821289 -12.176522254943848 -20.253158569335938 -71.77980041503906 -10.718502044677734 -7.479389667510986 -15.131548881530762 10.1345796585083 -10.341666221618652 4.064241409301758 -63.40708923339844 -68.3513412475586 -25.465335845947266 0.1800568848848343 10.567886352539062 6.494575500488281 4.3531880378723145 9.762694358825684 -27.97348976135254 -65.47361755371094 -10.013010025024414 -119.73797607421875 -3.4829394817352295 -12.62999153137207 1.2405471801757812 8.039445877075195 24.46295928955078 -20.771757125854492 -43.121707916259766 -51.30735397338867 -16.516887664794922 -9.069300651550293 -27.277238845825195 -19.169687271118164 -64.83621978759766 -3.4761714935302734 -54.56293869018555 -89.0700912475586 -25.79339027404785 33.52974319458008 7.218899726867676 16.406835556030273 -0.019839363172650337 -0.02542753890156746 -0.0226789191365242 0.004477535840123892 -0.005056719295680523 -0.017298758029937744 0.05978800728917122 0.05629369616508484 -34.7033576965332 24.546293258666992 -73.54715728759766 21.594188690185547 4.533451557159424 22.682079315185547 -121.24674987792969 -19.178691864013672 16.158119201660156 -22.3294734954834 -2.215714931488037 20.503293991088867 -15.455466270446777 -11.264485359191895 -20.567331314086914 23.53607749938965 15.60716438293457 8.266972541809082 5.805050373077393 5.9495086669921875 0.32417911291122437 3.3791744709014893 -10.721744537353516 -1.0286961793899536 20.348812103271484 -5.5060906410217285 23.57623863220215 -9.344697952270508 8.534443855285645 -5.379202842712402 -1.3030644655227661 -4.149143695831299 16.766386032104492 1.745801568031311 23.563255310058594 -1.9426112174987793 6.1207098960876465 -6.333640098571777 -0.3666292130947113 -7.921548843383789 18.789295196533203 1.5592827796936035 10.52425765991211 1.4681007862091064 9.101015090942383 -5.112908840179443 7.4235663414001465 -13.761276245117188 0.025069424882531166 0.020520195364952087 -0.04513031989336014 0.020543597638607025 0.008708419278264046 0.007396041415631771 -0.06309082359075546 0.011685053817927837 20.573009490966797 -54.64513397216797 -120.70683288574219 -45.761802673339844 -60.74514389038086 -102.73953247070312 54.32086944580078 35.98438262939453 -100.29181671142578 -103.37439727783203 -62.36113357543945 -56.695796966552734 -6.3439249992370605 -110.33811950683594 16.807714462280273 69.3438491821289 -112.9998550415039 -103.86383056640625 -29.744783401489258 -31.828706741333008 4.330881595611572 -50.28602981567383 22.875364303588867 -39.064388275146484 -57.78196716308594 -9.481157302856445 -9.639090538024902 2.5587100982666016 -13.170182228088379 -1.042582392692566 -24.063499450683594 -18.741458892822266 -116.61105346679688 -5.117959499359131 -9.625467300415039 -20.88658332824707 -3.4357831478118896 -9.376091003417969 -3.3851613998413086 -9.778142929077148 6.315528869628906 -6.809075355529785 19.415508270263672 -10.06403636932373 -14.412765502929688 -2.179169178009033 -15.359997749328613 -1.7754319906234741 3.9059274196624756",
"0.0025775234680622816 0.023317920044064522 -0.002167054917663336 -0.032810814678668976 -0.010104907676577568 0.03803971782326698 0.003765472210943699 0.061737991869449615 17.741809844970703 -7.189002513885498 14.731653213500977 0.6479827761650085 11.059489250183105 11.264877319335938 -9.0341796875 -2.722529411315918 14.4616117477417 -11.759346961975098 14.022550582885742 3.640101671218872 12.207414627075195 0.6011267900466919 -9.288790702819824 -6.2498698234558105 12.947905540466309 -8.585519790649414 8.965472221374512 0.7190842628479004 18.246366500854492 7.685521125793457 -5.8896307945251465 -4.5502424240112305 9.701313018798828 -5.121746063232422 24.588783264160156 1.5025264024734497 -19.001869201660156 25.165449142456055 -1.7877917289733887 -46.970848083496094 21.05191421508789 10.028613090515137 29.754106521606445 44.93217849731445 40.90329360961914 60.46674346923828 -168.57901000976562 -79.91388702392578 64.26699829101562 67.05615997314453 27.285621643066406 64.97916412353516 35.59372329711914 62.765777587890625 74.55452728271484 12.696549415588379 0.03948293253779411 0.06577944755554199 -0.04013141617178917 0.006731990724802017 0.013324681669473648 -0.010409625247120857 0.06666088849306107 -0.03136466071009636 -42.45623779296875 21.087739944458008 5.249293327331543 15.555044174194336 25.080245971679688 5.404606819152832 -1.11697518825531 -2.666486978530884 -119.5738525390625 -1.1969634294509888 -38.543453216552734 -28.813373565673828 10.1082763671875 11.531749725341797 5.573694705963135 32.46936798095703 -113.78791046142578 -188.8147735595703 -35.031005859375 46.94580841064453 -21.657024383544922 -181.09664916992188 76.50114440917969 23.13195037841797 -169.5077667236328 -18.687681198120117 -37.16790008544922 -49.20722579956055 -173.12074279785156 58.596435546875 45.87227249145508 -49.74374008178711 -63.52953338623047 -86.11515808105469 -153.78225708007812 -78.47247314453125 -18.900619506835938 48.95969009399414 -87.82491302490234 25.86827278137207 33.86560821533203 -136.1513214111328 -122.76378631591797 -48.9915771484375 -119.23213958740234 74.8658447265625 39.857269287109375 -93.16582489013672 0.042988184839487076 0.051915787160396576 0.05132415518164635 -0.02703063189983368 -0.04636024311184883 -0.03946768492460251 -0.02920120768249035 -0.0596502386033535 -16.070030212402344 -36.8012580871582 -82.55719757080078 -190.3852996826172 -133.89712524414062 -148.1580352783203 -28.892751693725586 64.87098693847656 9.866294860839844 15.561688423156738 -19.120014190673828 -46.52463912963867 3.1037614345550537 -22.4708194732666 -4.835870265960693 6.099400997161865 -9.595319747924805 14.889906883239746 5.001129150390625 1.0912481546401978 -1.1898434162139893 -77.82305908203125 16.399494171142578 9.530987739562988 -11.903406143188477 9.588032722473145 -6.409430503845215 4.698744773864746 -11.221463203430176 -12.63344669342041 0.9815835356712341 6.408787250518799 -6.8745527267456055 15.163858413696289 1.0567786693572998 4.314122200012207 5.513710021972656 -7.846899509429932 26.600505828857422 12.578131675720215 -7.179410934448242 0.5010594129562378 3.588172674179077 0.48661747574806213 9.41807746887207 -13.30942440032959 29.461015701293945 14.140951156616211 0.04110189154744148 0.03999582305550575 0.03133084997534752 0.059076715260744095 -0.01896766573190689 -0.06677980720996857 0.030434636399149895 0.06018631532788277 26.892587661743164 11.036949157714844 -100.94950866699219 -41.582305908203125 -47.59653091430664 -86.88471984863281 -136.12188720703125 -74.72001647949219 -162.14735412597656 -162.60585021972656 -29.197040557861328 62.2153434753418 -28.89926528930664 -96.20687866210938 29.163681030273438 -61.83439254760742 -65.08287048339844 -98.81094360351562 -96.41436767578125 -66.8168716430664 22.727813720703125 -26.15017318725586 -75.3499984741211 -150.96803283691406 -8.879776000976562 28.032350540161133 -164.18016052246094 -9.79891300201416 -29.78712272644043 -94.44044494628906 14.467286109924316 26.354827880859375 14.702630996704102 -21.636781692504883 -157.17501831054688 -117.03182220458984 9.92321491241455 -6.671743392944336 -2.0963096618652344 -75.26727294921875 -49.99706268310547 -6.678333282470703 35.23917770385742 -34.454498291015625 1.0693258047103882 -7.970600128173828 5.660676956176758 9.088719367980957 -57.28876495361328",
"0.04095273092389107 -0.06638867408037186 0.01772259920835495 0.02482917718589306 0.03492920100688934 -0.019987966865301132 -0.025621997192502022 0.05120254307985306 13.5474214553833 -6.465415954589844 2.0796942710876465 -6.052561283111572 -3.2261579036712646 -1.2640942335128784 -14.627894401550293 -13.917577743530273 13.858931541442871 -1.2421303987503052 12.832956314086914 -11.270063400268555 -8.849447250366211 -4.1032233238220215 -5.500117778778076 -5.2169694900512695 12.364017486572266 -1.7091559171676636 6.882906436920166 -3.73217511177063 -15.160945892333984 -5.010482311248779 -12.153721809387207 -9.408463478088379 13.11734676361084 6.7591047286987305 5.122597694396973 10.426382064819336 -25.26719093322754 2.615892171859741 -2.8006153106689453 19.123287200927734 28.52226448059082 9.220468521118164 1.71757972240448 5.799684047698975 2.872300386428833 -13.522826194763184 28.122404098510742 10.548049926757812 -80.50787353515625 -21.838783264160156 -47.00390625 15.828700065612793 -48.462825775146484 -16.4195613861084 -20.34149169921875 -18.957426071166992 0.04831073060631752 0.03430701419711113 0.05315997451543808 -0.03213577717542648 0.036319367587566376 0.041401349008083344 -0.0368029847741127 0.05931640788912773 -85.57662200927734 -57.16941833496094 -29.50957489013672 -4.225897789001465 -6.304010391235352 -5.991454601287842 -5.721081733703613 4.633321762084961 -5.295905590057373 -44.72797775268555 -1.7790318727493286 -11.890761375427246 -3.8625974655151367 -3.7650320529937744 9.538023948669434 0.5577692985534668 -86.79994201660156 -3.5737922191619873 -32.34877395629883 -22.15508460998535 -22.046371459960938 -13.054252624511719 27.579742431640625 -8.540304183959961 -38.78434753417969 -57.96687316894531 -62.75684356689453 -16.032312393188477 -30.70673179626465 2.7121074199676514 -0.9755613207817078 21.532920837402344 -64.18383026123047 -83.8825912475586 -40.67707443237305 -62.920982360839844 -5.150826930999756 -9.049232482910156 10.422562599182129 18.370296478271484 44.2351188659668 4.599637031555176 -77.27225494384766 -36.118282318115234 -75.16239166259766 12.823987007141113 36.827781677246094 23.870912551879883 -0.017780186608433723 -0.04276326298713684 -0.053254615515470505 -0.03778136521577835 -0.01943298801779747 -0.007073976099491119 0.02182239480316639 0.04651850089430809 -21.670080184936523 -35.324485778808594 17.084863662719727 30.00649070739746 14.587647438049316 23.879623413085938 32.12105941772461 27.457103729248047 8.40964412689209 -16.82826042175293 11.486433982849121 26.03012466430664 24.6992244720459 22.1588191986084 20.1363582611084 -22.49454116821289 -0.5142457485198975 -2.7975547313690186 6.94938850402832 14.499224662780762 20.9941463470459 23.296348571777344 1.4499825239181519 -1.9531891345977783 5.597937107086182 1.8189164400100708 13.974472999572754 10.95122241973877 11.346450805664062 18.491167068481445 6.187880516052246 2.178041696548462 -0.4560754895210266 6.876165866851807 1.2280025482177734 8.991949081420898 3.932128667831421 -0.33146458864212036 -18.49524688720703 1.9287993907928467 1.4969736337661743 -5.644135475158691 5.736740589141846 4.6557135581970215 -5.120789051055908 5.271361827850342 -10.881661415100098 1.6397956609725952 -0.013620366342365742 0.024708298966288567 0.06405641883611679 0.039093974977731705 0.04360777512192726 0.008855453692376614 -0.040611524134874344 0.05358264595270157 -51.41954040527344 -52.02444839477539 78.84535217285156 20.75189971923828 52.71410369873047 26.61497688293457 38.73915481567383 35.52058029174805 11.243122100830078 32.105812072753906 49.48588943481445 30.273717880249023 30.561954498291016 48.94405746459961 -1.8926897048950195 -10.986109733581543 18.909751892089844 42.34806442260742 41.532230377197266 52.81809997558594 32.29587936401367 14.875094413757324 29.916290283203125 -1.2955594062805176 54.84465026855469 28.049510955810547 7.502944469451904 20.21341323852539 30.97234535217285 26.431739807128906 16.75761604309082 2.9209039211273193 22.579816818237305 20.942432403564453 11.61165714263916 26.600461959838867 29.426193237304688 25.305601119995117 23.138660430908203 15.292155265808105 -32.93253707885742 1.9886726140975952 18.798988342285156 -6.010366916656494 14.393765449523926 22.888837814331055 8.851849555969238 -3.258725643157959 -7.355991363525391",
"-0.04049060866236687 0.05762092024087906 -0.04070986807346344 -0.01428452879190445 0.04590986296534538 0.04944267496466637 -0.03865553438663483 -0.022656043991446495 -11.853531837463379 -18.99454689025879 -15.522207260131836 -14.154826164245605 -12.509294509887695 -0.044591523706912994 9.81104564666748 9.954444885253906 -7.4256510734558105 -23.234580993652344 -13.052708625793457 -13.546760559082031 -6.087807655334473 -3.9626526832580566 5.166353702545166 8.940986633300781 -11.339923858642578 -15.686491966247559 -14.940302848815918 -16.86233901977539 -17.019563674926758 -14.957460403442383 6.084993839263916 4.104371547698975 -5.354551792144775 -17.658132553100586 -3.4099955558776855 -19.004093170166016 -14.750732421875 -14.961800575256348 22.63699722290039 29.371868133544922 9.207529067993164 -1.7139261960983276 0.22415854036808014 -6.119201183319092 5.580236911773682 -56.97330856323242 48.893287658691406 18.884193420410156 -38.802207946777344 -48.864261627197266 -88.46886444091797 -52.46491622924805 -50.47032165527344 2.6470417976379395 16.643659591674805 0.4204605221748352 0.05564849078655243 0.05487845838069916 0.008944000117480755 -0.035508424043655396 0.006082022562623024 -0.0032455327454954386 0.037302639335393906 0.030275480821728706 -56.15507507324219 -75.29334259033203 -14.17387580871582 -26.001571655273438 -17.45557403564453 -6.629406929016113 -3.82316517829895 1.1110025644302368 -22.790424346923828 -168.26219177246094 -79.25759887695312 -19.47254753112793 -93.42454528808594 -23.850311279296875 -13.914862632751465 5.113186836242676 -93.31230926513672 -169.28269958496094 -151.70948791503906 -119.50396728515625 -33.84605407714844 -77.95585632324219 -165.280517578125 -25.02923011779785 -99.95164489746094 -149.17283630371094 -116.25410461425781 -108.78082275390625 -21.15974235534668 -23.657182693481445 2.1760034561157227 -21.22624397277832 -100.48646545410156 -90.62689208984375 -55.03335952758789 -68.38632202148438 -31.805051803588867 22.481182098388672 25.45766830444336 -46.17204284667969 -42.091278076171875 -49.409324645996094 -102.05325317382812 -12.21091365814209 -138.0986785888672 -121.1354751586914 -49.42351150512695 -18.917003631591797 0.048154640942811966 0.020843494683504105 0.03718053549528122 0.006443418562412262 0.0033014710061252117 -0.03100959025323391 0.021970432251691818 0.06083742901682854 90.54679107666016 -21.450851440429688 2.269566774368286 19.092327117919922 12.073925018310547 70.58182525634766 57.8011360168457 54.27472686767578 13.18474006652832 26.29574966430664 -107.18669128417969 46.046844482421875 6.295478343963623 34.124595642089844 9.37694263458252 32.270748138427734 1.7366927862167358 20.362957000732422 2.938211679458618 29.210725784301758 10.114110946655273 8.36851692199707 10.368066787719727 23.342741012573242 6.663278102874756 15.972922325134277 4.6805315017700195 15.154150009155273 10.040616035461426 -0.1407594531774521 17.929000854492188 19.39822769165039 7.556541919708252 12.180158615112305 10.24009895324707 14.74707317352295 11.300627708435059 -9.444063186645508 30.07103729248047 22.783466339111328 4.514678001403809 13.14624309539795 10.134256362915039 15.788381576538086 7.168169021606445 -19.82573890686035 27.13359832763672 23.523305892944336 -0.04067211225628853 -0.05329747498035431 -0.0634167343378067 0.027560798451304436 0.00410100631415844 0.025940852239727974 0.05739810690283775 -0.024491220712661743 -82.12650299072266 -94.04002380371094 3.7773962020874023 3.5905873775482178 -86.3974609375 7.929500579833984 -110.5238037109375 -68.64398956298828 -102.4179916381836 -8.996644020080566 -97.212890625 -42.798282623291016 -10.510821342468262 10.711188316345215 -17.66572380065918 -121.1513900756836 -75.55244445800781 -143.06500244140625 -18.255632400512695 -10.353242874145508 -10.163786888122559 -52.49755096435547 -31.029130935668945 -15.011526107788086 -23.664594650268555 -40.8598518371582 -25.99639129638672 -81.43763732910156 -23.324085235595703 -11.915475845336914 -9.022170066833496 29.04027557373047 -105.00285339355469 -30.994609832763672 25.07790756225586 -21.851810455322266 -139.16526794433594 -19.067066192626953 9.659947395324707 15.399862289428711 -136.84580993652344 4.14705753326416 12.033876419067383 5.050047874450684 -33.50164031982422 -10.744832038879395 -7.187032222747803 2.4736056327819824 -34.328487396240234",
"-0.00561455637216568 0.010308963246643543 -0.04892103374004364 0.03797586262226105 0.01690029166638851 -0.014255679212510586 0.04199992120265961 0.02915547974407673 -3.1521363258361816 2.255643844604492 1.0775684118270874 1.0858954191207886 1.3747576475143433 5.13484525680542 4.159500598907471 2.962282657623291 -4.987582683563232 0.7719588279724121 -4.1260552406311035 0.3917236328125 -0.48286929726600647 8.327364921569824 0.79400634765625 2.722381591796875 -3.1483588218688965 -0.15220995247364044 -1.8848013877868652 4.024994850158691 -1.006673812866211 2.4424662590026855 9.631288528442383 7.216742992401123 0.3692678213119507 -1.8547701835632324 -6.340646266937256 -1.5443108081817627 -7.0842390060424805 -3.23864483833313 -1.306416392326355 12.489811897277832 3.8136231899261475 -12.08218002319336 -10.949358940124512 3.6672465801239014 -11.651705741882324 -13.03766918182373 -1.3418556451797485 5.510442733764648 -17.411819458007812 3.621121644973755 -34.08847427368164 9.771592140197754 -10.164961814880371 -68.66764831542969 -60.93230056762695 -45.03410720825195 -0.009605987928807735 -0.009075956419110298 -0.031954534351825714 0.06052171066403389 0.006308395881205797 0.042652327567338943 0.05263592675328255 -0.011892677284777164 29.870624542236328 17.991233825683594 18.8245906829834 26.249086380004883 31.012407302856445 20.915618896484375 8.573814392089844 2.5705313682556152 24.321102142333984 39.899757385253906 -4.708521842956543 33.155086517333984 28.359712600708008 31.393522262573242 30.515323638916016 16.000986099243164 88.08846282958984 75.21077728271484 14.565698623657227 29.072254180908203 32.59060287475586 32.576866149902344 42.34235382080078 2.5155961513519287 17.681386947631836 48.71320724487305 59.08102798461914 34.43270492553711 9.8784818649292 29.7858829498291 -4.922880172729492 -15.97335147857666 79.21882629394531 7.039750576019287 41.33606719970703 10.471324920654297 35.850162506103516 56.38570785522461 -18.09902572631836 -18.25257110595703 -68.66256713867188 7.228064060211182 -12.715327262878418 5.223924160003662 9.609210014343262 16.618511199951172 -5.199246883392334 -109.13935089111328 -0.029482372105121613 0.016459094360470772 -0.05216098949313164 -0.018040044233202934 0.05778516083955765 0.06513089686632156 -0.03136482834815979 0.001174766686744988 -18.056184768676758 15.131990432739258 0.06293772906064987 2.0752761363983154 25.692338943481445 -2.3827319145202637 -20.83872413635254 -26.04112434387207 -1.80350923538208 -10.964837074279785 -1.7101030349731445 -3.8413712978363037 14.631701469421387 10.066856384277344 2.106733798980713 -0.6437563300132751 -9.556939125061035 -8.908924102783203 -14.603288650512695 -12.339972496032715 -7.744020462036133 -3.954756498336792 -10.551959991455078 -4.258215427398682 -10.571639060974121 -9.251531600952148 -11.885832786560059 -14.029332160949707 -19.970844268798828 -10.024604797363281 -6.124386787414551 -5.318607330322266 -11.455794334411621 -8.33685302734375 -11.343549728393555 -8.5390043258667 -18.07782554626465 -8.852304458618164 -8.465675354003906 -8.020529747009277 -12.841474533081055 -12.775651931762695 -14.568267822265625 -4.8528900146484375 -18.616395950317383 -16.103286743164062 -10.013049125671387 -8.460653305053711 -0.03383740782737732 -0.06609993427991867 -0.0038392681162804365 0.05396878346800804 -0.05818098038434982 0.01891971565783024 -0.0013183278497308493 0.0530945360660553 -74.81998443603516 -46.63465118408203 -0.46734899282455444 -34.16654586791992 -2.961085081100464 -25.03795051574707 -36.43354415893555 -60.14497756958008 -11.223625183105469 32.51068115234375 -9.99515438079834 -22.32848358154297 -42.805049896240234 -24.018293380737305 -14.923673629760742 -52.935569763183594 -7.766480922698975 14.152434349060059 34.01762008666992 7.699952125549316 16.064456939697266 11.101791381835938 3.635319948196411 1.8695520162582397 42.802940368652344 72.27398681640625 55.94017791748047 25.544885635375977 44.639625549316406 31.433513641357422 13.9050931930542 25.84211540222168 -6.911947727203369 62.04332733154297 84.55264282226562 36.58302307128906 48.9388427734375 33.73725128173828 24.031490325927734 18.20367431640625 37.4493408203125 49.43150329589844 52.186222076416016 34.498783111572266 28.99053382873535 18.733604431152344 6.515216827392578 8.012651443481445 71.96139526367188",
"-0.04288116842508316 0.03309150040149689 0.030466321855783463 0.06337858736515045 -0.009014594368636608 0.017107270658016205 0.056004598736763 0.01586705632507801 7.452904224395752 14.146739959716797 11.406429290771484 6.47978401184082 3.1770148277282715 11.991377830505371 11.696443557739258 13.201911926269531 6.392550945281982 9.51893138885498 9.538674354553223 7.520010948181152 4.7264862060546875 7.020518779754639 11.681161880493164 11.529159545898438 3.1387217044830322 9.598594665527344 7.745073318481445 8.184198379516602 2.680985927581787 7.5106682777404785 12.99453067779541 12.301409721374512 5.221457481384277 9.329840660095215 0.3639931380748749 0.3598214089870453 14.982728958129883 8.569469451904297 22.202070236206055 16.78300666809082 20.671228408813477 26.05815315246582 13.847990036010742 20.823232650756836 18.520261764526367 14.929255485534668 45.84956741333008 19.66840362548828 21.395160675048828 55.63066864013672 44.51380920410156 48.808738708496094 44.17182540893555 42.19747543334961 15.302531242370605 43.384429931640625 -0.03415929526090622 0.008134079165756702 -0.05334996432065964 0.023932650685310364 0.021958986297249794 -3.459998333710246e-05 -0.033362627029418945 -0.019702421501278877 21.12293815612793 15.442893028259277 -30.292192459106445 -1.7496061325073242 1.2135348320007324 -1.9919434785842896 -2.467341423034668 1.1277486085891724 -31.082679748535156 -15.772392272949219 -7.714471340179443 -3.2487857341766357 0.33934709429740906 -4.737320423126221 -6.347081184387207 -1.177317500114441 8.245649337768555 0.9387608766555786 -24.106767654418945 -36.315635681152344 -0.9574032425880432 -2.3620989322662354 0.7152965664863586 11.231213569641113 44.331668853759766 -8.952435493469238 23.755250930786133 19.329988479614258 -6.028975486755371 -67.6106948852539 -17.52767562866211 12.241765022277832 1.8139630556106567 -35.649662017822266 -44.64939498901367 10.5900239944458 18.396303176879883 -12.386011123657227 37.54678726196289 19.02262306213379 2.3256375789642334 61.49900436401367 -7.203704833984375 33.20948791503906 11.921194076538086 -7.951117515563965 24.798843383789062 1.749060034751892 0.003480627667158842 -0.06478939950466156 0.028997119516134262 0.035448018461465836 -0.01579061523079872 0.02504133991897106 0.05905676633119583 0.02125304751098156 -44.820560455322266 -21.293415069580078 -5.7480854988098145 -26.999317169189453 -8.127153396606445 -9.709089279174805 13.618017196655273 -29.543182373046875 -15.181750297546387 -16.200511932373047 -5.7389373779296875 -13.346725463867188 -8.045931816101074 7.780745029449463 -5.924233913421631 -9.814581871032715 -11.511091232299805 -7.575845718383789 -12.591194152832031 -11.529741287231445 -13.952811241149902 -1.737555980682373 -3.4067139625549316 -2.3597147464752197 -0.94559645652771 -1.393428087234497 -5.82476806640625 7.492172718048096 -4.98081636428833 -0.46084970235824585 -3.82000994682312 -11.051915168762207 -0.3914949893951416 -1.1488295793533325 -2.8074452877044678 4.3330206871032715 -12.49344539642334 -8.109207153320312 -4.2722578048706055 -7.5803937911987305 -1.672397255897522 -3.761932849884033 -5.911361217498779 -4.300036907196045 -9.559855461120605 -14.133676528930664 -13.315238952636719 -9.472134590148926 0.008161438629031181 0.021244533360004425 0.031531814485788345 -0.05089205130934715 -0.05426725372672081 -0.05225047469139099 0.03361436352133751 0.009458890184760094 61.41570281982422 31.727802276611328 10.72165584564209 45.0654296875 94.85406494140625 -27.275156021118164 -10.272217750549316 65.06683349609375 -84.67913818359375 -8.147821426391602 21.492643356323242 25.418907165527344 36.506385803222656 35.749515533447266 -9.474656105041504 4.580154895782471 -18.406185150146484 -30.6074161529541 -15.26762866973877 1.1462838649749756 -20.513750076293945 -29.050519943237305 -16.831789016723633 -20.419523239135742 -5.8646650314331055 -12.26148796081543 12.338894844055176 -2.194730520248413 -3.9075980186462402 -55.530601501464844 -6.032344818115234 -6.950252056121826 -75.7685775756836 -12.418399810791016 -2.0645201206207275 13.790552139282227 -3.875955820083618 -28.022010803222656 1.0217899084091187 -9.226766586303711 -4.5952887535095215 -14.625493049621582 11.075944900512695 -13.450196266174316 -5.86248779296875 -5.391772270202637 -4.772927284240723 6.441988468170166 -13.68560791015625",
"-0.029852721840143204 -0.05313277617096901 -0.002028312534093857 0.06526767462491989 0.003058681497350335 0.06555361300706863 0.014469826593995094 0.022302668541669846 -0.32055598497390747 -3.048279285430908 -6.176029682159424 5.197390556335449 1.464532494544983 22.904752731323242 -123.40341186523438 7.760629653930664 -2.162803888320923 0.49195531010627747 -4.288999080657959 1.9181513786315918 -1.8726301193237305 8.389983177185059 46.586708068847656 -1.3489218950271606 3.28830623626709 2.9359488487243652 -0.2529805302619934 3.221423864364624 12.269205093383789 8.89348030090332 4.46104097366333 13.319079399108887 3.7450530529022217 8.687808990478516 1.6445814371109009 0.8576489686965942 2.0287015438079834 3.3066234588623047 1.2654610872268677 13.292399406433105 9.583761215209961 11.630401611328125 9.880444526672363 3.4838695526123047 11.311905860900879 14.33829402923584 11.888060569763184 3.7652993202209473 10.149389266967773 5.464234828948975 -15.407720565795898 -18.823434829711914 -22.985231399536133 15.995046615600586 9.146728515625 8.302223205566406 -0.036418378353118896 -0.046363573521375656 0.055100277066230774 0.044888563454151154 -0.04722120612859726 -0.02185097336769104 0.0005270364345051348 -0.04877771809697151 -111.37655639648438 -4.649785041809082 -79.83212280273438 20.647592544555664 -11.387097358703613 13.238165855407715 -13.945979118347168 6.833934783935547 48.74579620361328 -55.438926696777344 48.88942337036133 -23.51947784423828 -0.5265595316886902 -31.268795013427734 42.17195129394531 4.949486255645752 -14.719743728637695 38.3567008972168 -0.8031164407730103 1.7919474840164185 2.2502570152282715 -23.5843505859375 35.05250549316406 -13.755143165588379 -51.39530563354492 3.790473699569702 -17.767148971557617 -1.4242100715637207 -4.721459865570068 19.8156681060791 4.409499168395996 26.05307960510254 -23.457183837890625 1.045521855354309 8.090264320373535 -0.8957911729812622 11.851099014282227 -55.785240173339844 6.50314474105835 -9.730045318603516 -20.149011611938477 70.84672546386719 12.219256401062012 -2.9421567916870117 -10.886734962463379 10.097147941589355 -4.461914539337158 5.536971092224121 -0.011976866982877254 0.019649198278784752 0.05372973531484604 0.03170245140790939 0.033821165561676025 -0.0036976581905037165 0.04392377287149429 0.054027605801820755 -12.596443176269531 12.629928588867188 1.705694556236267 10.444419860839844 -2.9065229892730713 -14.619264602661133 -20.80501937866211 14.903114318847656 6.225070953369141 -14.477543830871582 -14.753798484802246 -23.368318557739258 3.2857561111450195 -7.400683879852295 122.36366271972656 -13.985523223876953 -2.498076915740967 -5.9406232833862305 -9.804177284240723 -2.147507905960083 -9.62910270690918 -58.29549789428711 -6.292648792266846 -49.60205841064453 -4.636466979980469 -4.916762351989746 -4.017876148223877 -4.23058557510376 -9.590505599975586 -11.246208190917969 -14.769038200378418 -12.569003105163574 -5.57342529296875 -4.543261528015137 -8.016843795776367 -3.709660768508911 -9.267759323120117 -11.45787239074707 -9.448241233825684 -12.656471252441406 -5.523011207580566 -2.412205457687378 -1.6457695960998535 1.16147780418396 -3.7507574558258057 -13.313166618347168 -5.59861946105957 -6.546568393707275 0.02016638219356537 0.03759100288152695 0.024777356535196304 0.06219935789704323 0.03336566314101219 0.01819278858602047 -0.05438682436943054 -0.06365127116441727 -20.331443786621094 28.405376434326172 42.4007453918457 -71.7494888305664 72.84950256347656 -53.24087142944336 119.82433319091797 -3.0455358028411865 -52.02532196044922 -145.4986114501953 -21.290433883666992 38.18741226196289 -35.14509963989258 52.2210693359375 -11.390348434448242 8.881539344787598 31.584842681884766 33.31980514526367 14.858301162719727 -13.007332801818848 0.930241584777832 -20.59952735900879 47.50935745239258 -25.18279457092285 0.3776104748249054 13.29855728149414 -9.524128913879395 10.944936752319336 -7.347171306610107 -3.3541719913482666 -2.601761817932129 18.18880271911621 2.938093662261963 6.276399612426758 -8.999274253845215 0.14320212602615356 -3.495985746383667 -14.283543586730957 -1.2719697952270508 -6.4856276512146 -2.2462682723999023 6.369174957275391 22.338642120361328 -19.09760856628418 -12.093597412109375 -5.790621280670166 -4.555941581726074 1.958596110343933 -11.657784461975098",
"-0.06613875925540924 0.044418301433324814 0.015542258508503437 -0.009582427330315113 0.02014670893549919 0.06151127815246582 0.009994489140808582 0.04524890333414078 -14.723603248596191 -1.6234337091445923 -7.205492973327637 -14.332436561584473 13.340765953063965 11.37204647064209 5.431839942932129 16.349376678466797 -18.809574127197266 -3.0389175415039062 0.6562121510505676 -12.952885627746582 3.578839063644409 5.847697734832764 11.949978828430176 19.541702270507812 -12.59363842010498 -2.3987605571746826 7.631112575531006 -12.061895370483398 2.303382158279419 0.9890100955963135 4.413641452789307 19.167129516601562 -17.23110008239746 0.9049260020256042 -16.382644653320312 -4.11123514175415 2.0276167392730713 -5.500411033630371 -3.808913469314575 11.53502082824707 0.34937235713005066 8.1627836227417 17.07563591003418 -2.321721076965332 -1.444554090499878 -3.8299922943115234 -41.582637786865234 21.865903854370117 -9.35130500793457 54.92497253417969 31.969289779663086 3.0077505111694336 -31.24392318725586 3.8285961151123047 -20.839426040649414 17.167945861816406 -0.013575619086623192 -0.055747080594301224 -0.008376477286219597 -0.04991617053747177 -0.003923378419131041 0.023084847256541252 0.01496701780706644 -0.04823976755142212 42.627777099609375 -129.0173797607422 -6.474103927612305 -7.489191055297852 15.028257369995117 18.05890464782715 -4.271482467651367 -18.278745651245117 -112.62590789794922 47.597957611083984 -1.335437536239624 8.2940034866333 23.257295608520508 16.902759552001953 4.763362407684326 -28.59451675415039 33.95390319824219 74.92245483398438 32.76759719848633 15.90876293182373 14.798255920410156 10.599079132080078 10.574942588806152 -19.974227905273438 54.17569351196289 -51.02522659301758 45.069183349609375 12.280547142028809 21.44095802307129 11.630729675292969 -16.321788787841797 -14.650416374206543 50.852317810058594 -6.669106483459473 40.330936431884766 29.094362258911133 3.5869126319885254 -52.339317321777344 -35.81235122680664 14.199234962463379 23.378463745117188 44.1386833190918 -54.03575134277344 17.840974807739258 -115.3926010131836 24.622032165527344 5.796672344207764 -37.26268005371094 -0.014223636128008366 -0.019061103463172913 0.06007310748100281 -0.04720422998070717 0.01750214397907257 0.04444297030568123 -0.020069129765033722 -0.06328562647104263 43.25385665893555 43.0083122253418 27.412830352783203 15.99810791015625 -2.8619086742401123 -25.762983322143555 -7.579250812530518 6.852780342102051 31.223594665527344 33.84754180908203 18.94078254699707 10.32394790649414 -4.692478179931641 -8.169535636901855 -134.40293884277344 -24.783571243286133 29.366458892822266 26.2567081451416 20.47317123413086 15.859222412109375 4.289645195007324 1.181998372077942 -6.6858015060424805 -2.0115652084350586 22.810319900512695 27.581228256225586 6.469815254211426 -2.54967999458313 3.5120513439178467 5.235428333282471 -20.102148056030273 -16.331645965576172 9.34530258178711 18.249401092529297 13.705694198608398 3.047489881515503 -10.478524208068848 -3.7036001682281494 -9.765437126159668 -9.252942085266113 8.696929931640625 30.8717041015625 12.98350715637207 9.758206367492676 -0.7240516543388367 -9.741350173950195 -11.25046443939209 -8.492944717407227 0.045793842524290085 0.05808282643556595 0.02779305912554264 0.029634185135364532 0.059323519468307495 -0.028640542179346085 0.014372000470757484 -0.0014308574609458447 46.53841018676758 70.90182495117188 68.02727508544922 25.700969696044922 57.14702224731445 -16.378238677978516 -48.17451858520508 -72.8558349609375 18.364818572998047 67.21063232421875 58.86534881591797 38.311466217041016 -6.481680393218994 -8.304959297180176 -105.50738525390625 -4.313162326812744 39.7507209777832 27.88245391845703 43.75178909301758 20.65085220336914 21.183353424072266 -43.92555618286133 -115.7989501953125 -19.418081283569336 22.230915069580078 36.669612884521484 36.07179260253906 24.14386749267578 0.9946024417877197 -12.674748420715332 -33.37274932861328 -40.053340911865234 15.133004188537598 32.044944763183594 15.917777061462402 21.426332473754883 -4.074008941650391 -6.7550225257873535 -26.793819427490234 -25.1641845703125 3.0298264026641846 4.194174766540527 3.840848207473755 -0.6828929781913757 4.200504302978516 -11.022528648376465 -3.6133406162261963 -7.7310261726379395 -37.33237838745117",
"0.04777975007891655 0.01373717375099659 -0.0015317582292482257 0.010813920758664608 0.043610140681266785 0.008348146453499794 0.006467712111771107 0.038915034383535385 5.690110683441162 -30.808074951171875 -4.791040897369385 -10.18785285949707 -0.7113348841667175 -6.150866985321045 5.450376510620117 1.9889309406280518 6.503514766693115 1.5079751014709473 -4.623137950897217 2.8197219371795654 -1.5589489936828613 -7.278151035308838 2.5442087650299072 -0.6327853798866272 8.726293563842773 16.696216583251953 4.834954261779785 11.027180671691895 -4.049159526824951 -7.252010822296143 -13.213047981262207 -6.566928386688232 4.067749500274658 13.921608924865723 13.133726119995117 3.618217706680298 -9.86424732208252 -6.850109100341797 -22.984682083129883 2.973851442337036 7.483435153961182 21.519678115844727 20.07807731628418 12.678994178771973 -2.138274908065796 -10.425431251525879 -24.766386032104492 -1.4013861417770386 42.93562316894531 80.44495391845703 71.91840362548828 -20.791135787963867 54.681396484375 -33.06386947631836 -39.476863861083984 5.157021522521973 -0.02224753424525261 0.02615182101726532 0.04123657941818237 -0.009550408460199833 -0.024846898391842842 -0.04989055544137955 0.01363055408000946 -0.000986250932328403 -5.993175983428955 -2.529104471206665 8.639630317687988 2.370316982269287 2.3007829189300537 -7.93112325668335 -1.0546705722808838 2.790304660797119 30.65272331237793 32.679813385009766 1.2832703590393066 23.02056312561035 10.756239891052246 -10.315377235412598 -12.988717079162598 -130.46653747558594 18.932090759277344 44.53557586669922 15.149070739746094 35.346160888671875 22.834943771362305 -17.2266845703125 -90.16098022460938 -115.57643127441406 62.6866569519043 82.79568481445312 79.68859100341797 59.954288482666016 30.27336883544922 13.94328784942627 -5.343605041503906 -88.57645416259766 103.76564025878906 23.50644874572754 66.58140563964844 60.26368713378906 30.46953010559082 -61.46049118041992 20.348766326904297 -22.743507385253906 53.93250274658203 77.67171478271484 57.83964538574219 32.635467529296875 66.51051330566406 -54.824886322021484 -14.629241943359375 1.3412256240844727 0.010779965668916702 -0.036383915692567825 -0.04227292910218239 0.04772024229168892 -0.02403639629483223 -0.06388290971517563 -0.060531437397003174 -0.030843447893857956 -14.500012397766113 17.203990936279297 0.849340558052063 -3.3061017990112305 19.004005432128906 0.7909090518951416 -90.14207458496094 -12.9788818359375 17.42326545715332 31.565183639526367 -5.940271854400635 5.887690544128418 16.164770126342773 -3.2879996299743652 3.069331407546997 5.755539417266846 17.5139217376709 6.531071186065674 14.418548583984375 1.3171329498291016 2.6653313636779785 4.272070407867432 -0.7411433458328247 8.49299144744873 5.0725860595703125 -7.637807846069336 8.343561172485352 -3.7668139934539795 -1.3155691623687744 3.205872058868408 7.403609275817871 23.367725372314453 1.1953811645507812 -8.541915893554688 2.4020066261291504 2.0136656761169434 -3.7673463821411133 6.6817145347595215 9.543184280395508 19.25063705444336 -0.39065930247306824 -6.760858535766602 6.898978233337402 4.425412178039551 -4.869935989379883 4.760114669799805 1.483403205871582 20.241653442382812 0.036495640873909 0.0029555666260421276 0.021504981443285942 0.05201330408453941 0.04533638060092926 -0.026833513751626015 0.01982494629919529 -0.037357915192842484 34.13602066040039 -83.57027435302734 -2.0995054244995117 -30.357141494750977 -49.66317367553711 -3.385938882827759 -7.502240180969238 -152.1120147705078 -119.90928649902344 -15.26794147491455 -53.76649856567383 -13.603236198425293 -57.76399230957031 -38.25965118408203 14.856955528259277 -64.14775085449219 14.740578651428223 -19.948440551757812 -21.004730224609375 -20.774234771728516 3.355607032775879 6.498283386230469 -8.325369834899902 -7.868626594543457 -81.51197052001953 -16.817413330078125 -19.724485397338867 -18.511648178100586 1.8084750175476074 4.33225154876709 11.85866641998291 13.096096992492676 -25.447174072265625 8.977192878723145 -12.314037322998047 0.9183355569839478 4.387807846069336 11.238523483276367 4.91057825088501 2.968517303466797 12.092623710632324 12.398509979248047 -20.012054443359375 -4.285775184631348 2.1063880920410156 5.989937782287598 6.548608779907227 2.581645965576172 -28.31801986694336",
"0.05271368846297264 -0.0617653988301754 0.02587033063173294 0.0072224680334329605 -0.014445382170379162 0.02894187532365322 -0.0444929338991642 -0.009709596633911133 -18.063798904418945 -35.38789367675781 -15.23276138305664 -10.862878799438477 3.325733184814453 -2.6481189727783203 -7.30473518371582 -7.965873718261719 -14.25883960723877 -21.975431442260742 -23.845802307128906 -17.9036922454834 -4.159284591674805 -8.534011840820312 -12.140338897705078 0.0640820562839508 -14.226624488830566 -11.376590728759766 -26.394060134887695 -24.551334381103516 -7.4773688316345215 -5.401790142059326 -7.551987648010254 -9.414022445678711 1.6242749691009521 -8.245209693908691 -12.800999641418457 -11.44167423248291 -0.3278525769710541 -2.1028997898101807 -2.6956663131713867 -13.18999195098877 13.943633079528809 -2.3357701301574707 -6.423744201660156 16.427026748657227 26.518314361572266 39.6724967956543 25.5738525390625 1.4976338148117065 2.874803304672241 3.2330214977264404 8.723544120788574 15.230388641357422 21.986473083496094 0.5733457803726196 -9.497512817382812 1.038366436958313 -0.030843552201986313 0.05432746931910515 0.0016807356150820851 0.051117125898599625 0.016546614468097687 -0.036020342260599136 0.049218907952308655 -0.03269946202635765 -28.007972717285156 -44.76688766479492 -12.273880004882812 -20.894317626953125 -30.71811866760254 -13.65019416809082 6.92268705368042 8.143630027770996 -54.99069595336914 -63.764896392822266 -22.118627548217773 -51.28386306762695 -26.384506225585938 -17.165987014770508 -0.7136176228523254 3.0013680458068848 -40.45097351074219 -37.815372467041016 -35.56523513793945 -38.481388092041016 -34.71632766723633 -8.396519660949707 18.212751388549805 7.157433986663818 -14.810293197631836 -62.71162414550781 -65.45901489257812 -56.61607360839844 -41.171268463134766 -6.957896709442139 7.314903736114502 2.429751396179199 -40.932273864746094 -62.70846939086914 -52.74314498901367 -41.15503692626953 -19.529726028442383 -32.3066291809082 16.674877166748047 15.311860084533691 -60.7125129699707 -41.07878875732422 -55.03743362426758 -56.85275650024414 5.781625270843506 14.595793724060059 101.66326904296875 48.260066986083984 0.007500637788325548 -0.014512208290398121 -0.004426758736371994 -0.020565254613757133 0.011535151861608028 -0.041733983904123306 -0.04552918300032616 -0.05804617330431938 11.085312843322754 -22.967130661010742 -18.875638961791992 -12.659496307373047 -24.30773162841797 23.230897903442383 55.58359909057617 26.73410987854004 -0.45887723565101624 -23.511396408081055 -39.72593307495117 -17.75728988647461 -15.182193756103516 6.131733417510986 2.38987398147583 6.468722820281982 -0.5399705767631531 -21.267845153808594 0.4440111517906189 -12.29267692565918 9.37797737121582 9.199967384338379 6.1987481117248535 13.37965202331543 4.233633518218994 -25.172765731811523 2.9066381454467773 3.121781349182129 5.651496410369873 9.867555618286133 10.27060604095459 13.444416999816895 -2.245579719543457 -15.675646781921387 -0.2183493673801422 0.11993543803691864 -1.4431852102279663 0.6243612766265869 9.325124740600586 10.233893394470215 -5.610301971435547 -22.486743927001953 -12.347319602966309 -24.450130462646484 -14.257713317871094 -8.49630355834961 1.3858078718185425 11.284603118896484 0.05745100975036621 -0.032324232161045074 -0.009501837193965912 -0.003388440702110529 0.01330363005399704 -0.0535360686480999 0.02379988320171833 -0.02353636920452118 -4.453041076660156 3.2019221782684326 37.100242614746094 10.488298416137695 4.405430793762207 17.501585006713867 -33.570831298828125 -85.472412109375 4.704658508300781 8.622896194458008 67.25211334228516 8.431553840637207 -3.1147406101226807 -6.215305328369141 -33.16454315185547 -9.110577583312988 -2.0469472408294678 -13.303778648376465 -10.028549194335938 7.572744369506836 -3.8149256706237793 -12.162840843200684 -6.948575019836426 -24.939001083374023 10.070269584655762 -19.79624366760254 -14.388731956481934 -7.636003017425537 -10.127954483032227 -14.507872581481934 -12.543550491333008 -42.51132583618164 -8.498297691345215 -23.318490982055664 -19.791976928710938 -13.605091094970703 -6.928939342498779 -15.877148628234863 -26.770347595214844 -23.855846405029297 -27.77461814880371 -8.390676498413086 0.9201603531837463 -9.006860733032227 -14.340422630310059 -4.094942569732666 -8.152185440063477 -13.57210922241211 54.5495719909668",
"0.005637129303067923 -0.0358937568962574 0.06364434212446213 0.030598780140280724 0.038860879838466644 0.052980341017246246 -0.046794358640909195 -0.01819458231329918 7.464662075042725 -1.65847909450531 3.344402313232422 -1.3817888498306274 3.2273285388946533 36.29160690307617 -8.515745162963867 5.205617427825928 9.60573673248291 -2.7954111099243164 10.6973295211792 -2.856386184692383 14.73696231842041 -10.017515182495117 5.508200168609619 1.137603521347046 5.453151226043701 1.0118435621261597 2.6255173683166504 16.38812255859375 10.348255157470703 -23.341222763061523 4.815377235412598 6.563836574554443 11.987875938415527 -0.7335285544395447 1.973671555519104 14.846853256225586 30.173030853271484 -21.88315200805664 49.179588317871094 17.531696319580078 8.475948333740234 18.370250701904297 9.238749504089355 31.390806198120117 15.934405326843262 -22.016191482543945 17.01658058166504 4.508171558380127 -122.99530029296875 -23.836299896240234 12.119608879089355 59.47585678100586 -127.44589233398438 9.260660171508789 14.074816703796387 -17.315105438232422 0.007517420221120119 -0.02555464580655098 0.01672271266579628 0.04706469178199768 -0.06133108586072922 -0.01695208065211773 -0.016517136245965958 -0.024851860478520393 -29.670207977294922 -17.435211181640625 -10.287124633789062 -15.983535766601562 14.064210891723633 -92.09105682373047 -5.977663993835449 -7.920566082000732 -135.5089111328125 -98.36258697509766 -36.2249755859375 0.4612944424152374 -17.922809600830078 -27.40584373474121 -3.1788015365600586 15.84518051147461 23.828454971313477 -1.5980100631713867 -99.30777740478516 19.297983169555664 -27.63955307006836 -35.60667037963867 -105.47142028808594 -28.042430877685547 -22.193571090698242 9.319440841674805 24.41556739807129 31.156259536743164 -94.89900970458984 -54.799713134765625 -52.907657623291016 -131.1008758544922 9.490803718566895 32.29730987548828 -18.59113121032715 8.548245429992676 -118.02251434326172 -25.977903366088867 -21.60359764099121 -32.26959991455078 -93.12023162841797 -20.438199996948242 -32.09392547607422 -92.88317108154297 -110.19635009765625 -71.98542785644531 -68.4012680053711 -63.516456604003906 -0.04492781683802605 0.01275523193180561 0.022125255316495895 -0.0543108731508255 0.036362774670124054 0.012544206343591213 -0.019711054861545563 0.03429928794503212 -20.897329330444336 -27.084203720092773 -19.44477653503418 -22.634672164916992 47.11009216308594 30.110071182250977 -19.42975616455078 0.10749492794275284 -4.510000705718994 -9.793927192687988 -15.464484214782715 -25.226234436035156 -8.295899391174316 18.221271514892578 -15.535943984985352 22.645179748535156 -6.118891716003418 -8.52054500579834 0.5209260582923889 -18.311420440673828 6.5169501304626465 3.3386924266815186 -7.084771156311035 1.8644903898239136 -10.216946601867676 -0.7740442156791687 -15.150359153747559 -14.082619667053223 -17.845266342163086 -24.434589385986328 -9.7520751953125 -5.446590423583984 -4.835597515106201 -9.212124824523926 -9.08318042755127 -1.1104063987731934 -16.39364242553711 -16.933244705200195 -12.623730659484863 -2.2622427940368652 -3.1928389072418213 -6.335744380950928 -5.843275547027588 -0.24120518565177917 -7.75050687789917 -19.238948822021484 -0.3656962215900421 -1.6903901100158691 0.0051595233380794525 0.026831602677702904 -0.03595804050564766 -0.048883598297834396 0.04706602916121483 -0.03086315467953682 0.03514138236641884 -0.0643252432346344 -77.92781066894531 22.502771377563477 7.324961185455322 -63.85183334350586 -45.846473693847656 31.176387786865234 -42.627174377441406 -51.45412826538086 1.8677574396133423 -77.13470458984375 12.356226921081543 -35.786590576171875 -47.69850540161133 -79.03992462158203 -13.760150909423828 -3.026780843734741 -104.12334442138672 -101.88917541503906 -97.35223388671875 -114.9025650024414 18.44593048095703 -115.89679718017578 -58.00241470336914 0.7427493929862976 -24.92985725402832 -131.62806701660156 -0.6374086141586304 3.797549247741699 4.844045162200928 -42.779266357421875 -130.61297607421875 1.4831349849700928 1.313279151916504 -0.1904265582561493 -75.40652465820312 2.784487009048462 -16.155132293701172 -33.887184143066406 -10.810221672058105 -3.346494436264038 12.98519229888916 20.89314079284668 11.586000442504883 -5.310805320739746 2.4627556800842285 -16.428747177124023 -0.14312948286533356 1.8880798816680908 -3.630878210067749",
"0.05273333191871643 0.050766825675964355 -0.06442022323608398 -0.01570294424891472 -0.012984822504222393 0.05970956012606621 0.029144784435629845 -0.0115272905677557 -25.25475311279297 -22.76893424987793 -26.19251251220703 -11.770029067993164 -30.310611724853516 -15.591408729553223 -12.86559772491455 -7.270048141479492 -25.239620208740234 -24.91145133972168 -21.716947555541992 -6.78406286239624 -34.73508071899414 -5.505820274353027 -12.216524124145508 -8.428448677062988 -23.638179779052734 -20.173036575317383 -16.199249267578125 -8.972138404846191 -40.08707046508789 -10.066380500793457 -23.8185977935791 -10.323044776916504 -28.471406936645508 -17.466428756713867 -26.98371696472168 -9.7662935256958 -21.580120086669922 -15.5330228805542 -25.600618362426758 -12.508091926574707 -34.50870132446289 7.076355934143066 -14.427868843078613 -17.401552200317383 -23.390995025634766 -147.36709594726562 -124.84716796875 -2.5354082584381104 -66.40676879882812 -115.22917175292969 0.19352245330810547 -15.793985366821289 -69.24391174316406 24.389493942260742 28.672677993774414 34.7663459777832 0.023746684193611145 -0.053031500428915024 -0.02207888476550579 -0.03423779085278511 -0.004502553958445787 0.05557585135102272 0.027224477380514145 -0.01859894022345543 25.041187286376953 -6.015143871307373 -38.58137512207031 -3.896196126937866 -5.96363639831543 -3.5692927837371826 -0.3345029950141907 2.5776588916778564 -10.535049438476562 -70.56108093261719 -8.323332786560059 -0.04136453568935394 -18.025100708007812 -1.2119287252426147 5.942193508148193 0.6439486742019653 -72.07793426513672 4.540283679962158 8.096528053283691 -66.47267150878906 -25.140771865844727 -22.68355941772461 5.379751682281494 -124.49877166748047 -50.42955780029297 28.01297950744629 18.637556076049805 -2.942930221557617 -25.73141098022461 -143.99375915527344 -71.56331634521484 -26.718517303466797 -5.757603645324707 -62.07079315185547 -16.61236572265625 -62.91850662231445 -30.645395278930664 -180.71437072753906 -83.94136810302734 -143.24465942382812 -5.733132839202881 42.19988250732422 -15.51096248626709 -17.55721664428711 22.32965660095215 -54.76718521118164 -40.405914306640625 -132.73158264160156 -0.038857925683259964 -0.012993146665394306 -0.029845664277672768 0.03932173550128937 -0.04671537131071091 0.018365096300840378 -0.015260488726198673 0.045739833265542984 -15.976292610168457 -33.937557220458984 -20.750125885009766 -24.18790054321289 -25.381824493408203 -50.66548538208008 -93.44705200195312 -6.581103801727295 0.9086638689041138 -16.42249870300293 6.362288951873779 -4.775187969207764 -71.83604431152344 -29.20166015625 -20.113767623901367 -12.619063377380371 12.572772979736328 28.703107833862305 14.685376167297363 -13.248921394348145 -45.428985595703125 -44.67436981201172 -40.18561935424805 2.123508930206299 18.17902946472168 25.60253143310547 25.362409591674805 13.408894538879395 -57.40201187133789 -19.168079376220703 -12.2204008102417 -0.22715021669864655 21.63933563232422 26.152725219726562 28.37965202331543 17.133922576904297 22.999534606933594 3.048919916152954 8.034931182861328 1.8428865671157837 20.08980369567871 19.099441528320312 20.313949584960938 14.020776748657227 13.084325790405273 6.715001106262207 14.558782577514648 4.063703536987305 -0.013921411707997322 0.04140418395400047 -0.009706578217446804 -0.009637895971536636 0.03303632512688637 -0.015303762629628181 -0.04740871489048004 0.004153686575591564 27.9930419921875 26.3308162689209 6.206876754760742 -29.515029907226562 -47.75067901611328 -53.93798065185547 -30.385818481445312 -11.484101295471191 14.8651762008667 4.7085418701171875 -10.656791687011719 -71.816650390625 -29.45697784423828 -6.552803993225098 -27.04595184326172 -38.24814224243164 -105.74131774902344 11.697161674499512 -18.909372329711914 11.326491355895996 -6.255092620849609 -4.5443315505981445 -17.713659286499023 -20.828296661376953 25.791385650634766 25.91935157775879 -74.9668197631836 21.15714454650879 19.19290542602539 -3.8287012577056885 -5.617268085479736 -26.0019588470459 -73.94331359863281 18.527088165283203 0.6639382243156433 12.089261054992676 12.38702392578125 -5.5277838706970215 -4.437218189239502 -13.45219898223877 1.9149154424667358 17.160205841064453 -5.886013507843018 11.474658966064453 -0.31223008036613464 1.2274152040481567 -1.8319172859191895 -15.255070686340332 25.253141403198242",
"-0.024213377386331558 -0.017960354685783386 -0.01988849975168705 0.005930647719651461 0.04510505497455597 0.007668874692171812 0.04035108536481857 -0.0025658069644123316 9.944337844848633 8.943916320800781 -12.247305870056152 -11.389578819274902 5.403504848480225 3.381523847579956 -8.000029563903809 -5.143039703369141 8.85474967956543 18.09092140197754 -7.428679943084717 3.94225811958313 5.37060022354126 -12.620768547058105 0.035532377660274506 -3.3110971450805664 6.757325649261475 19.462987899780273 -15.803112030029297 15.252487182617188 -5.001430511474609 -1.4853453636169434 -6.764448165893555 -8.85651969909668 11.987622261047363 -4.493546962738037 14.588205337524414 3.904015302658081 -12.147802352905273 -24.14900779724121 1.5798029899597168 -13.021071434020996 -0.516732931137085 9.112988471984863 29.24025535583496 32.23400115966797 -13.973855018615723 -48.967350006103516 5.397494792938232 7.8944549560546875 36.31601333618164 18.446359634399414 32.06489562988281 36.962501525878906 -19.091663360595703 -43.49888229370117 -77.0991439819336 -0.2923286259174347 0.05008726939558983 0.041628122329711914 -0.05105653777718544 0.03917650133371353 0.03462476283311844 0.06347589194774628 0.046614065766334534 -0.053173620253801346 -19.007925033569336 20.115875244140625 -50.76887130737305 -10.094547271728516 -3.566859722137451 -10.386500358581543 -19.704086303710938 1.2673020362854004 9.29238224029541 -7.526792526245117 -23.543880462646484 23.54914093017578 -0.8169742226600647 4.107297897338867 -5.850831985473633 -102.54534149169922 7.1021575927734375 26.21669578552246 -8.177868843078613 10.701964378356934 29.000530242919922 -39.04635238647461 -24.27153778076172 -58.40276336669922 -37.9833984375 -8.32069206237793 21.31265640258789 -14.392951011657715 2.256129026412964 -36.671016693115234 -122.16175079345703 18.770389556884766 -54.79177474975586 -22.12546730041504 -107.1607437133789 -72.19666290283203 -35.7051887512207 -85.5366439819336 25.091964721679688 51.2989387512207 -72.5227279663086 -114.90899658203125 -7.359270095825195 35.163063049316406 36.226070404052734 18.353425979614258 57.72072982788086 2.081446886062622 -0.0196644589304924 -0.009355257265269756 -0.03332316875457764 -0.012846948578953743 -0.04668513685464859 0.04753246158361435 -0.03074607625603676 0.03331577032804489 -35.50519943237305 -40.313053131103516 -9.114059448242188 8.966659545898438 -45.058467864990234 -67.43002319335938 -41.96140670776367 3.7500522136688232 -5.939986228942871 12.777976989746094 -70.59090423583984 -29.46503448486328 0.785535454750061 1.838537573814392 -23.75443458557129 -99.0635986328125 1.3610539436340332 5.038849830627441 4.613745212554932 10.169815063476562 9.85616397857666 10.076502799987793 -1.318663477897644 1.3924328088760376 4.765400409698486 7.658967018127441 -38.42036819458008 18.170652389526367 2.8563122749328613 13.100533485412598 8.489349365234375 -1.3433854579925537 8.855961799621582 10.57001781463623 21.472366333007812 0.601632297039032 -6.8033857345581055 -3.1000537872314453 -0.6478084921836853 -9.456461906433105 2.0045671463012695 12.981167793273926 10.020977973937988 -28.457088470458984 -10.460119247436523 -3.98526668548584 -2.3858160972595215 -10.55526351928711 0.054294027388095856 0.04263196885585785 -0.004053200129419565 0.06370370835065842 -0.04911719262599945 0.06148974597454071 0.014187292195856571 -0.04687425494194031 53.42544174194336 0.9020729660987854 17.690837860107422 77.0823745727539 91.59530639648438 37.84956741333008 40.87726974487305 9.095670700073242 0.6573683023452759 28.36697769165039 29.914794921875 32.740455627441406 30.92972183227539 12.322799682617188 17.548389434814453 -49.39263153076172 -33.576515197753906 -75.04804992675781 5.646864891052246 12.56273365020752 29.00912857055664 14.071226119995117 -86.12094116210938 21.051776885986328 36.44553756713867 24.25020980834961 -13.306209564208984 -35.99259948730469 -10.644845008850098 -0.37214407324790955 6.8422088623046875 0.1267808973789215 -1.5929405689239502 -66.78458404541016 47.30315017700195 -38.44566345214844 17.31340980529785 -6.145325660705566 -3.5409061908721924 7.345623016357422 5.845271587371826 -9.091221809387207 -24.224822998046875 -3.7562758922576904 -37.36775207519531 -4.143260955810547 -2.11792254447937 0.15982167422771454 -51.615692138671875",
"0.05931326001882553 0.036864619702100754 0.006013746373355389 0.043583452701568604 -0.02562536671757698 0.015122725628316402 -0.006502622738480568 -0.04072035104036331 -10.097506523132324 -9.623343467712402 -9.130558967590332 -10.99850845336914 -6.392857551574707 -16.97732162475586 -9.183394432067871 -11.079354286193848 -9.852141380310059 -8.075966835021973 -9.534826278686523 -8.175131797790527 -8.332146644592285 -9.432412147521973 -6.014872074127197 -15.035665512084961 -8.984519958496094 -5.488309860229492 -6.726441860198975 -5.438586711883545 -14.562438011169434 0.21892571449279785 -5.239976406097412 -10.904533386230469 -15.302722930908203 -9.483879089355469 -7.754274845123291 -12.583392143249512 -39.16660690307617 9.793611526489258 0.23682741820812225 -7.956602096557617 -15.84372329711914 10.32599925994873 -28.037628173828125 -31.74060821533203 -33.75077438354492 3.679839611053467 -6.142791748046875 -18.869171142578125 -39.23147201538086 21.030710220336914 16.80201530456543 -29.34296989440918 11.47856330871582 -64.77751922607422 0.5363683104515076 0.8788481950759888 -0.06160379946231842 -0.004765423014760017 -0.016585491597652435 -0.010114959441125393 -0.05945964902639389 -0.01812807470560074 -0.026837551966309547 0.02310037985444069 -13.935179710388184 -6.420014381408691 -3.6486809253692627 -11.752254486083984 -9.329340934753418 -3.7037627696990967 -6.4427900314331055 0.9129958152770996 -16.557336807250977 -5.907660484313965 13.978840827941895 -15.014004707336426 -13.551016807556152 -13.914371490478516 -7.3080291748046875 -8.904958724975586 -14.415151596069336 1.4427410364151 -12.314753532409668 -11.459909439086914 -10.24050521850586 -11.927530288696289 -83.32492065429688 -42.564613342285156 35.40460205078125 27.838699340820312 32.110107421875 -19.784404754638672 -33.298423767089844 -11.302084922790527 -9.680679321289062 -56.42153549194336 0.408017635345459 -2.220355749130249 7.026827812194824 -13.341682434082031 -18.36284065246582 -116.04795837402344 28.438323974609375 -70.7438735961914 -32.057769775390625 20.118167877197266 -9.93436336517334 5.7594099044799805 26.27859878540039 26.35294532775879 -32.84867858886719 -71.98343658447266 -0.04440617933869362 0.05185658112168312 -0.04719550907611847 -0.06250984966754913 0.01638205721974373 -0.03127092868089676 -0.05963262543082237 0.05895044654607773 -25.951814651489258 4.944280624389648 4.223292827606201 18.137723922729492 -5.047259330749512 43.32347869873047 18.15962028503418 -18.89985466003418 21.295211791992188 16.556644439697266 13.123102188110352 23.397180557250977 5.898446559906006 -16.330049514770508 12.88214111328125 44.158016204833984 15.284655570983887 6.659710884094238 15.722737312316895 -4.768793106079102 -11.905532836914062 3.916907548904419 17.865812301635742 19.220115661621094 11.811515808105469 1.4630613327026367 -4.673153877258301 0.5845465064048767 -3.194627046585083 -4.573638439178467 11.034614562988281 16.81732940673828 8.80068588256836 10.862014770507812 -2.6765856742858887 -10.161916732788086 -40.31037139892578 3.20564341545105 -1.1037554740905762 14.29880428314209 14.152681350708008 9.900184631347656 5.868295669555664 -10.800270080566406 -17.25733757019043 12.978867530822754 3.3181076049804688 14.234380722045898 -0.046370264142751694 0.02890028990805149 -0.042704734951257706 0.05798564478754997 0.04908989742398262 -0.014455839991569519 -0.04409012943506241 0.03263583779335022 -53.22518539428711 -76.97564697265625 -96.2429428100586 -8.194397926330566 4.724631309509277 14.46981143951416 92.13037872314453 -101.26821899414062 -7.596235752105713 -117.01192474365234 -2.564527750015259 3.544660806655884 -79.29769134521484 -100.20736694335938 71.99630737304688 49.07020950317383 -38.50469970703125 23.9084415435791 3.577885627746582 33.99234390258789 -3.3323380947113037 18.276634216308594 10.80293083190918 -5.01924467086792 -19.25016212463379 -6.99236536026001 26.26150894165039 12.348172187805176 -5.735422134399414 2.487273693084717 1.5882420539855957 -5.415619373321533 -8.235501289367676 -0.772491991519928 -29.16390609741211 6.863396644592285 3.900529623031616 -7.69407320022583 -4.382607460021973 -0.6525982618331909 19.021610260009766 26.294687271118164 14.272780418395996 4.351109027862549 -3.2650203704833984 -1.4484082460403442 -2.3155314922332764 2.5868630409240723 28.146930694580078",
"0.0028674257919192314 0.00367560307495296 0.06225641816854477 0.02665349654853344 0.05078737810254097 0.04836830124258995 0.00658605620265007 0.044633835554122925 -5.848331928253174 -6.729154109954834 4.365283012390137 -19.278078079223633 3.181504011154175 -9.437267303466797 11.017078399658203 12.824141502380371 -9.715723991394043 -10.146443367004395 -0.7550384402275085 -3.729689836502075 6.605560779571533 -5.63643741607666 8.074676513671875 11.04763126373291 -6.222850322723389 -5.96541166305542 -3.2788631916046143 -6.175199031829834 2.3171350955963135 -0.7028805017471313 12.295883178710938 14.301254272460938 1.5571417808532715 1.1640591621398926 -12.223800659179688 -0.90550696849823 -3.2763123512268066 10.656719207763672 9.87083625793457 20.90926170349121 4.316596984863281 -9.56215763092041 3.1038131713867188 20.02811050415039 18.65752601623535 3.4527053833007812 42.80373764038086 7.398780345916748 -22.390289306640625 -32.64171600341797 5.369527816772461 -0.38162359595298767 14.403340339660645 26.593982696533203 28.283945083618164 41.037254333496094 0.05391279608011246 -0.06109778210520744 -0.04652470350265503 0.0002975168463308364 0.02823229692876339 -0.04367342218756676 -0.014628457836806774 -0.023883642628788948 -8.22032356262207 -10.332260131835938 -5.896801471710205 6.515350341796875 -6.320681095123291 -0.2749505341053009 7.033023834228516 10.676440238952637 -13.197606086730957 -28.509897232055664 -37.13108825683594 -8.485570907592773 3.6718971729278564 8.81650447845459 6.797935485839844 11.284613609313965 -6.532724857330322 -16.038042068481445 -23.892698287963867 -12.395697593688965 -11.543089866638184 2.6118087768554688 9.725034713745117 -10.822690963745117 -24.69019889831543 16.542531967163086 -13.838279724121094 -9.311905860900879 -8.95562744140625 5.1255574226379395 -85.81430053710938 1.670113205909729 3.632633686065674 -69.499267578125 -30.18454360961914 -25.427047729492188 -11.701525688171387 -91.89815521240234 -4.588802814483643 -28.705989837646484 37.9626579284668 30.331010818481445 -77.67359924316406 -21.607484817504883 -17.84956169128418 -27.96537208557129 -77.7196273803711 -21.1705265045166 -0.010542433708906174 0.008017654530704021 -0.0015188150573521852 -0.036512795835733414 0.043957095593214035 0.031125210225582123 0.014687621966004372 0.038669999688863754 22.189123153686523 14.109477996826172 10.5000581741333 12.328009605407715 -38.75492858886719 -22.942365646362305 -21.181270599365234 -21.506078720092773 4.57522439956665 5.611207485198975 0.5585383176803589 -1.3176782131195068 -5.208812713623047 -70.28822326660156 -14.746768951416016 15.445856094360352 5.300300598144531 8.706457138061523 2.172085762023926 -11.949721336364746 -4.450027942657471 -1.8109862804412842 -5.839480400085449 13.5739107131958 6.846220016479492 5.526752948760986 -5.50354528427124 -1.0797873735427856 -11.254006385803223 6.457831382751465 8.996529579162598 0.3715851902961731 5.381880283355713 -7.214095592498779 -7.396334648132324 -1.0915676355361938 7.9529547691345215 5.820689678192139 3.1436071395874023 13.135690689086914 -5.158665180206299 -11.931018829345703 -21.241756439208984 0.30878305435180664 -1.6096972227096558 10.3090181350708 9.27153205871582 11.184040069580078 -0.0549057237803936 -0.0093462485820055 0.06350047141313553 0.015054912306368351 -0.004802332725375891 0.059818316251039505 0.046833403408527374 0.0006102309562265873 -22.42397689819336 -15.853906631469727 -67.7158203125 -60.35138702392578 -83.9351577758789 -83.87115478515625 22.907304763793945 -6.119840145111084 -18.000774383544922 -16.40212059020996 -24.40947151184082 -74.41084289550781 -83.49712371826172 17.38711929321289 -4.501619815826416 -2.9359638690948486 -29.29448699951172 -33.81229782104492 -31.25175666809082 -43.873661041259766 12.331024169921875 -62.9216194152832 -28.914335250854492 -20.696870803833008 -5.6900811195373535 -6.720963954925537 -11.11650562286377 -13.090368270874023 -11.914665222167969 -26.322553634643555 -22.612167358398438 -71.94198608398438 -6.407641410827637 -6.468960762023926 4.006947994232178 10.876729011535645 -12.725367546081543 -21.653423309326172 -9.680386543273926 -26.992328643798828 4.372622966766357 -12.572749137878418 -1.0149915218353271 -24.336719512939453 -21.578577041625977 -19.5642147064209 -0.6355844140052795 2.532179832458496 -13.202153205871582",
"-0.01805194467306137 0.018451524898409843 0.0574842169880867 -0.012849202379584312 -0.029072167351841927 -0.042931053787469864 0.04820092394948006 -0.02002415992319584 -8.463800430297852 -8.968660354614258 -14.442641258239746 -17.547014236450195 -4.045057773590088 -13.786112785339355 -41.64426803588867 -10.237123489379883 -9.339566230773926 -11.78370475769043 -11.850607872009277 -9.416228294372559 -9.413410186767578 -20.360626220703125 -42.782676696777344 -11.109639167785645 -12.613313674926758 -2.924565076828003 -16.251766204833984 -14.638798713684082 -9.741133689880371 -20.330345153808594 -25.267295837402344 -11.675935745239258 -15.546945571899414 -13.670413970947266 -16.334062576293945 -17.647974014282227 -2.3094418048858643 -16.83673095703125 1.6340835094451904 -10.223448753356934 -20.575275421142578 17.03874397277832 -10.6327543258667 -0.08259046822786331 33.61606216430664 -17.789966583251953 13.33098030090332 -22.196250915527344 -28.891233444213867 -38.85357666015625 10.75049114227295 76.57173156738281 29.0257511138916 -19.854305267333984 -13.76732063293457 -36.73198318481445 -0.00023530219914391637 -0.014452136121690273 -0.06397373229265213 -0.016510477289557457 0.043364252895116806 0.0182476919144392 -0.051786672323942184 0.0235834252089262 14.647917747497559 -15.17486572265625 14.750056266784668 -5.3157148361206055 4.21469259262085 0.9845156669616699 -2.4542367458343506 -3.1644015312194824 48.36140441894531 49.24983596801758 23.365175247192383 7.451109886169434 15.677800178527832 6.959609031677246 8.124337196350098 -30.65380859375 -44.7548713684082 45.04313278198242 -15.2788724899292 -15.18659496307373 3.3982441425323486 12.55989933013916 -0.05760681629180908 17.174585342407227 20.067901611328125 -16.466829299926758 -35.570655822753906 -27.355955123901367 -12.87781810760498 4.49067497253418 8.040397644042969 6.66027307510376 7.000133037567139 -17.22800064086914 -11.693882942199707 -109.57752227783203 -24.59160804748535 -45.958980560302734 4.68327522277832 10.631847381591797 -26.89914894104004 28.05926513671875 -59.458038330078125 0.7566928267478943 -180.17416381835938 -21.356504440307617 -6.548070430755615 7.052321910858154 -0.019355155527591705 0.007414050400257111 -0.02166399545967579 -0.0015185283264145255 -0.0470912791788578 -0.028546834364533424 0.01842990703880787 -0.041577305644750595 -41.56855773925781 -109.4478988647461 -42.82681655883789 -103.79499816894531 -56.76138687133789 -56.195648193359375 -140.07725524902344 -90.69207000732422 7.292897701263428 -97.66636657714844 -111.56103515625 -14.735808372497559 -7.598503589630127 -5.8749775886535645 -36.729793548583984 -48.23859786987305 0.13017727434635162 -19.018239974975586 -14.528501510620117 -6.88610315322876 -16.960567474365234 -14.781500816345215 -36.81078338623047 -31.960004806518555 9.086235046386719 -12.939807891845703 8.93270206451416 9.922215461730957 16.97222137451172 3.6730191707611084 20.46778678894043 9.64392375946045 4.7855024337768555 8.67470645904541 15.468366622924805 11.932902336120605 14.014416694641113 10.6571683883667 21.377206802368164 13.427913665771484 6.070112705230713 12.381584167480469 12.51634693145752 20.6533145904541 14.873112678527832 2.9455134868621826 24.978321075439453 9.192169189453125 -0.034136611968278885 0.03351926803588867 -0.018031194806098938 0.016185831278562546 0.04029553756117821 0.05366884544491768 0.050637707114219666 0.013607893139123917 -81.65203094482422 -33.326141357421875 -42.700199127197266 -128.6560516357422 -135.24658203125 -49.539669036865234 -88.90702819824219 -45.4869499206543 -60.411163330078125 -50.9834098815918 -32.231746673583984 -65.03130340576172 -48.79742431640625 -27.195283889770508 1.794299840927124 -109.1590805053711 -72.51155090332031 -93.55225372314453 -30.018348693847656 -10.335110664367676 5.145967960357666 -42.40046691894531 10.995485305786133 -14.301562309265137 -47.30699920654297 -30.675920486450195 -14.821870803833008 -8.332987785339355 -22.365692138671875 -17.830591201782227 -42.308990478515625 -30.073627471923828 -32.26476287841797 -8.118904113769531 -4.351790428161621 11.65843677520752 -12.41624641418457 1.935837984085083 -1.61879301071167 -29.69009017944336 -41.15472412109375 -18.323543548583984 41.29359817504883 -11.632662773132324 -1.7836445569992065 -4.353205680847168 -1.6972191333770752 -6.23018741607666 36.87104797363281",
"0.048748213797807693 -0.006963079329580069 0.03287973254919052 -0.03787263110280037 -0.06618210673332214 -0.022876817733049393 0.058182455599308014 -0.06447060406208038 5.897087097167969 -0.5038101077079773 0.7011910080909729 -24.72071075439453 -19.480974197387695 -8.909734725952148 -48.911067962646484 -19.176362991333008 8.515158653259277 -0.13980554044246674 -5.198040008544922 -6.840703010559082 -15.757843971252441 -16.349031448364258 -44.744117736816406 -15.02186393737793 5.535321235656738 8.077347755432129 -5.93830680847168 1.7787367105484009 -8.620471000671387 6.688889026641846 -14.91930866241455 -6.194244861602783 14.464908599853516 6.963805198669434 9.879528999328613 5.364081382751465 4.718824863433838 11.331099510192871 31.49787139892578 -6.304304599761963 22.24623680114746 11.160199165344238 23.108257293701172 4.0024566650390625 21.58557891845703 14.715240478515625 43.94009780883789 -44.48100662231445 21.332275390625 2.714520215988159 11.158549308776855 67.95748901367188 -32.0240364074707 27.572315216064453 15.373754501342773 -137.2082977294922 -0.030791429802775383 0.016069311648607254 -0.01847843825817108 0.016023822128772736 -0.06120365858078003 0.018763944506645203 -0.026633433997631073 0.009192277677357197 0.06284663826227188 -0.9457307457923889 -2.1665539741516113 14.021939277648926 10.27137565612793 0.9100877046585083 -2.545522928237915 1.0330169200897217 -20.941621780395508 23.637123107910156 3.281066656112671 2.7311370372772217 6.55725622177124 -6.73597526550293 8.298648834228516 3.5950205326080322 28.17295265197754 82.802490234375 11.3377046585083 5.700345993041992 -9.398163795471191 -3.239682197570801 27.91866111755371 19.942867279052734 53.141727447509766 12.726248741149902 16.150775909423828 -6.924242973327637 0.09922388941049576 42.459686279296875 -2.3468000888824463 26.0054988861084 3.3493590354919434 46.95261001586914 22.28688621520996 35.2146110534668 64.5790023803711 33.9239616394043 28.539260864257812 8.377933502197266 45.950801849365234 15.424487113952637 65.45458984375 87.32351684570312 -1.6366205215454102 10.215688705444336 48.230072021484375 23.124122619628906 -0.054094184190034866 0.030961649492383003 -0.05706603825092316 0.0005867182626388967 -0.06295984238386154 -0.04274935647845268 -0.047348324209451675 -0.00503103993833065 -8.453617095947266 -42.41739273071289 -30.468643188476562 -26.387426376342773 -8.978604316711426 -39.98484802246094 -3.979626417160034 8.428445816040039 17.06144905090332 -7.85275411605835 -2.071091890335083 -10.22330379486084 -1.7901654243469238 13.668892860412598 -0.8724954724311829 31.163257598876953 6.9844207763671875 -2.988288640975952 8.036199569702148 2.787024736404419 -2.1178362369537354 3.886537551879883 36.11201477050781 26.901399612426758 -2.2689337730407715 -1.5049525499343872 12.879070281982422 -0.5805166363716125 12.194852828979492 14.79069995880127 32.27710723876953 10.940831184387207 -0.6780825257301331 10.567367553710938 7.335352420806885 0.46161481738090515 15.431286811828613 17.08302879333496 33.85826873779297 12.936968803405762 -7.244939804077148 2.7219505310058594 6.5781025886535645 10.716044425964355 13.969237327575684 19.004600524902344 35.41658401489258 5.141464710235596 -0.016925524920225143 0.004461653530597687 -0.0445098839700222 -0.04017336294054985 -0.02325073443353176 -0.006455135066062212 0.04884440824389458 0.05317153409123421 -46.230751037597656 15.610782623291016 -2.5026490688323975 -89.67041015625 -134.44833374023438 -8.884424209594727 -5.3235297203063965 -139.4266815185547 -62.98495864868164 -137.7704620361328 -14.110931396484375 5.354307174682617 -43.07825469970703 -32.73416519165039 -5.637430667877197 -44.05434036254883 -68.54199981689453 -10.564472198486328 -3.7207322120666504 7.727665901184082 -12.21061897277832 -16.26612663269043 -38.02267074584961 -0.5929689407348633 -6.891768455505371 12.15172290802002 -1.7870700359344482 -4.20029354095459 -0.7551214694976807 -11.252596855163574 -12.526569366455078 -4.7826948165893555 3.1115705966949463 23.170141220092773 8.17928409576416 10.47789478302002 22.975378036499023 1.3989862203598022 -9.843395233154297 -3.442034959793091 -11.06631851196289 8.262799263000488 28.04902458190918 1.7250100374221802 8.072061538696289 -2.5165958404541016 -14.32963752746582 -4.388234615325928 -23.763071060180664",
"-0.0591558963060379 0.0286642387509346 0.06271093338727951 -0.04293414205312729 0.018023589625954628 -0.046453122049570084 0.0648493692278862 -0.02500239945948124 -7.193526744842529 5.2676897048950195 5.997890949249268 0.4420545995235443 -2.5885841846466064 3.2064929008483887 14.568828582763672 11.67530632019043 0.697942852973938 1.1001896858215332 -5.223453044891357 -15.566344261169434 2.754805326461792 -1.8330087661743164 16.697935104370117 12.937271118164062 4.053713798522949 -0.22429019212722778 -23.05695343017578 -8.232717514038086 -16.947561264038086 -1.63746976852417 17.453227996826172 13.3440523147583 7.547143459320068 -0.9898366928100586 -0.5980556607246399 -44.56464385986328 2.049319267272949 -16.732885360717773 20.66242218017578 -2.615025043487549 2.85426664352417 11.002813339233398 -10.192547798156738 22.70261573791504 -17.025819778442383 56.45368576049805 8.738383293151855 27.911890029907227 -46.69904327392578 -32.002994537353516 32.41382598876953 19.68996238708496 82.00886535644531 -103.16899108886719 -6.731785297393799 -29.60508918762207 -0.053662002086639404 0.024187076836824417 -0.06320164352655411 -0.01624746434390545 0.04488859698176384 0.049879491329193115 -0.05390309542417526 -0.05340809375047684 13.45916748046875 19.28397560119629 18.443328857421875 11.68919563293457 1.7097805738449097 9.802613258361816 19.790973663330078 17.75065040588379 47.70355987548828 -12.958165168762207 -2.661151885986328 -1.633819580078125 2.351367712020874 19.747955322265625 19.426700592041016 20.179574966430664 6.180652618408203 -44.25102615356445 -118.04098510742188 1.6616451740264893 8.72877025604248 27.3232364654541 44.09214401245117 -3.380051851272583 23.297311782836914 -32.93178939819336 -17.345903396606445 -46.565860748291016 -22.103546142578125 4.491337776184082 -24.411165237426758 -29.98196792602539 -17.307769775390625 -4.37213659286499 -0.2198019176721573 0.14533057808876038 23.0280704498291 -16.463489532470703 -104.8746566772461 -102.72999572753906 -17.635473251342773 -63.32205581665039 -14.248408317565918 -27.8053035736084 -30.26146697998047 -154.7626953125 36.15825653076172 -26.666723251342773 -0.06448735296726227 0.06387363374233246 -0.05772155150771141 -0.01774013042449951 -0.052310485392808914 -0.011608071625232697 -0.06460312008857727 0.060693707317113876 -34.96339797973633 42.03013610839844 33.915184020996094 20.84821128845215 3.0110924243927 -14.77899169921875 -21.759260177612305 -4.068424701690674 -195.12265014648438 -56.74934387207031 4.357086181640625 -1.7450748682022095 5.3598246574401855 13.061378479003906 -12.184310913085938 6.3305535316467285 -2.543926477432251 -3.1856207847595215 13.389307975769043 0.21374227106571198 10.926020622253418 2.3514747619628906 -15.894149780273438 4.057162761688232 5.260121822357178 5.660465717315674 13.938629150390625 23.577913284301758 10.043713569641113 -0.5846027135848999 0.6779476404190063 7.354001522064209 5.318166255950928 0.9178977012634277 2.687978744506836 6.341366291046143 3.6046383380889893 6.888826370239258 -2.9538984298706055 -2.301306962966919 1.3449022769927979 -4.1840362548828125 5.932194709777832 14.853198051452637 4.549161911010742 -7.019793510437012 -0.7952873706817627 -2.2057228088378906 0.004464855417609215 0.06188805401325226 0.0013028279645368457 0.017055513337254524 -0.03771156072616577 -0.04491909593343735 -0.012930621393024921 0.010829978622496128 -60.671104431152344 102.84403991699219 54.97937774658203 62.58549118041992 75.38793182373047 4.401837348937988 -13.886192321777344 -22.349641799926758 15.41197395324707 55.331077575683594 69.16357421875 78.51972198486328 47.278289794921875 -15.605253219604492 45.822242736816406 -55.44816589355469 37.77756881713867 32.742279052734375 45.48213577270508 40.75981903076172 36.532493591308594 47.1285285949707 9.194038391113281 19.913644790649414 12.935722351074219 49.94694137573242 58.61157989501953 51.45923614501953 24.30464744567871 24.928909301757812 10.14078140258789 27.854215621948242 -145.43655395507812 16.76523208618164 81.90843963623047 36.87777328491211 49.213382720947266 21.336015701293945 1.9888190031051636 14.830838203430176 4.92950963973999 19.026330947875977 11.451324462890625 50.412803649902344 36.59932327270508 25.04188346862793 -12.685982704162598 -19.88724136352539 -46.157936096191406",
"-0.01737147755920887 0.0026435772888362408 0.042524758726358414 0.05380496755242348 0.06657333672046661 0.05158215016126633 0.0582311674952507 -0.04083498939871788 0.551459550857544 -11.787101745605469 -7.111534118652344 -2.2392868995666504 -5.359277248382568 -44.44538497924805 -36.403560638427734 -2.485748291015625 1.433031678199768 -9.059040069580078 -3.262187957763672 -9.205681800842285 1.6194791793823242 -16.65949058532715 22.82213592529297 9.451069831848145 1.1654406785964966 -15.50452709197998 -7.765322685241699 -3.61077880859375 4.18646240234375 -15.813952445983887 8.521493911743164 -3.812107801437378 -1.967649221420288 -9.816146850585938 -9.846844673156738 2.4997737407684326 2.006139039993286 -3.621767520904541 6.307135581970215 5.716754913330078 10.745423316955566 0.7786305546760559 -2.9809670448303223 9.457448959350586 6.296079635620117 9.69853687286377 7.645329475402832 -1.7990715503692627 51.1909065246582 -2.803879499435425 -12.001197814941406 -23.245054244995117 -3.064500331878662 4.396380424499512 17.106731414794922 19.088943481445312 -0.012349693104624748 0.05563496798276901 -0.03618009015917778 0.017316367477178574 0.04064267501235008 -0.05107564479112625 0.02893144078552723 0.023127947002649307 -17.159320831298828 -34.24988555908203 -24.46466636657715 -20.122478485107422 -25.106443405151367 -24.955530166625977 -14.840275764465332 -8.832703590393066 10.36290454864502 2.344890832901001 -3.413529634475708 -23.067365646362305 -27.369060516357422 -29.292402267456055 -5.437334060668945 -24.81776237487793 -34.61109924316406 -1.4622231721878052 -18.56488800048828 -22.667325973510742 -21.219114303588867 -29.89853286743164 21.893144607543945 -14.781266212463379 42.3380012512207 -30.185335159301758 -10.048229217529297 -10.424145698547363 -17.01945686340332 -13.448949813842773 -53.087276458740234 8.61510181427002 31.848478317260742 -30.951902389526367 -15.684053421020508 -8.933259963989258 -7.883407115936279 -35.354515075683594 -27.93988037109375 -8.449209213256836 23.975801467895508 -13.428128242492676 -19.799448013305664 1.7963011264801025 -37.74661636352539 -25.740283966064453 -104.17677307128906 -12.215876579284668 0.024629389867186546 0.05288824066519737 0.033486053347587585 0.009448152966797352 0.021627945825457573 -0.05803126096725464 -0.04934633895754814 0.036379024386405945 -38.222145080566406 19.30858039855957 12.090655326843262 15.942956924438477 7.5850090980529785 -31.39725685119629 56.136016845703125 54.598785400390625 24.573026657104492 9.268075942993164 7.76160192489624 18.07254409790039 19.220691680908203 -7.391696929931641 44.40339660644531 -8.813013076782227 6.393941402435303 -6.608004093170166 1.970184087753296 4.284049034118652 -4.405340671539307 -54.61753845214844 0.9285576939582825 10.384191513061523 0.7000727653503418 -0.042719174176454544 -2.6697640419006348 0.9143337607383728 -10.200274467468262 -15.40396785736084 -4.725259780883789 5.473920822143555 -3.678567886352539 -1.81563401222229 -3.583193778991699 2.702092170715332 -0.07912234961986542 9.104303359985352 2.7672903537750244 6.398558616638184 -1.7399871349334717 -7.229712963104248 -7.701236248016357 -2.774036169052124 -1.4145019054412842 8.608343124389648 10.581127166748047 3.398524761199951 0.029588768258690834 0.015262081287801266 0.004505238030105829 0.00929188821464777 -0.02148551493883133 0.06224733963608742 -0.008446131832897663 -0.011547474190592766 -43.801414489746094 -120.4901123046875 -35.20263671875 -94.72969055175781 20.806365966796875 -47.01582717895508 40.693145751953125 -10.9827880859375 -109.51243591308594 -58.78501510620117 -51.55916213989258 -96.96697235107422 -61.67107391357422 1.5606579780578613 16.189756393432617 21.639606475830078 -115.34723663330078 -108.31246185302734 -63.95676803588867 -112.99166870117188 -47.09768295288086 -123.12333679199219 29.904142379760742 8.099834442138672 -58.21223068237305 -22.77156639099121 -20.95286750793457 -14.162313461303711 -80.2554702758789 -6.463486194610596 -0.5290576815605164 14.128486633300781 -20.93614959716797 -75.8182373046875 -17.821754455566406 -10.462699890136719 -30.954734802246094 -42.77232360839844 -14.844058990478516 26.457616806030273 -24.376205444335938 -11.03670597076416 2.4670865535736084 -14.817864418029785 -41.02055358886719 -37.58440017700195 0.4885280132293701 1.3104876279830933 11.14248275756836",
"-0.003489795606583357 0.033122021704912186 -0.03761523962020874 0.027705004438757896 0.03902672603726387 0.03249711915850639 -0.05833052471280098 0.03491950035095215 -2.9844887256622314 -52.88189697265625 0.7427155375480652 18.744335174560547 -0.8593629002571106 1.4419727325439453 -8.282835960388184 -8.108488082885742 9.34611988067627 -13.591041564941406 -25.772546768188477 -15.786576271057129 -39.91185760498047 2.4367923736572266 5.154767990112305 -1.9806151390075684 17.755069732666016 -8.070086479187012 -11.341506004333496 -6.516811847686768 -13.62037181854248 10.442974090576172 7.325718879699707 10.750301361083984 27.83898162841797 10.255025863647461 7.3327436447143555 4.761728763580322 0.39743518829345703 11.460795402526855 7.7697978019714355 17.73435401916504 40.16631317138672 23.69305419921875 21.69490623474121 25.564571380615234 18.301584243774414 28.619491577148438 14.555984497070312 34.6454963684082 54.82820129394531 50.02635192871094 41.1120719909668 34.714141845703125 17.523223876953125 38.200889587402344 35.84357452392578 36.01200485229492 -0.012744542211294174 -0.054715078324079514 -0.06430163979530334 0.04029947891831398 -0.02918795309960842 -0.05721722170710564 0.03811296448111534 0.035295519977808 23.744888305664062 -14.845515251159668 11.976645469665527 16.287315368652344 8.354656219482422 20.390342712402344 22.00009536743164 22.397403717041016 8.288753509521484 -0.9272162318229675 21.15130615234375 15.559659004211426 22.922941207885742 26.840566635131836 26.912553787231445 22.11742401123047 66.00041961669922 25.736106872558594 30.70252799987793 27.430191040039062 28.941219329833984 39.859596252441406 37.78846740722656 28.97216796875 31.288408279418945 24.851980209350586 32.99087142944336 29.521997451782227 32.814598083496094 51.264129638671875 33.692222595214844 44.784149169921875 41.65533447265625 25.02274513244629 44.203636169433594 54.927146911621094 57.4239616394043 49.769962310791016 40.682491302490234 34.55096435546875 11.906604766845703 7.8808817863464355 52.54759216308594 31.231830596923828 53.38226318359375 39.787837982177734 67.23341369628906 33.391624450683594 -0.02053229510784149 0.0656718835234642 0.02353602647781372 -0.03768960013985634 -0.04244113340973854 -0.05368910729885101 0.016700299456715584 0.011060819961130619 -73.1531753540039 -55.8201789855957 -89.25234985351562 -40.83258056640625 -59.0010871887207 -48.99834442138672 -41.47117614746094 -44.565948486328125 -63.83318328857422 -52.25587844848633 -43.39925765991211 -59.6253547668457 -41.914031982421875 -42.49171829223633 -13.90230655670166 -41.19926071166992 -36.004905700683594 -27.020809173583984 -25.435317993164062 -40.52717208862305 -37.26332092285156 -28.48880386352539 -19.887678146362305 -21.501577377319336 -26.902965545654297 -35.09959030151367 -20.903575897216797 -39.99625778198242 -36.09113311767578 -31.93377113342285 -23.69457244873047 -30.871379852294922 -29.594511032104492 -29.952861785888672 -21.164281845092773 -33.83241271972656 -29.82798194885254 -26.352205276489258 -24.501667022705078 -28.25302505493164 -32.463871002197266 -31.764278411865234 -22.90656089782715 -37.263423919677734 -18.53939437866211 -32.27666091918945 -35.40127944946289 -33.40187454223633 -0.04535350576043129 0.05391014367341995 -0.021274171769618988 -0.06079566851258278 0.06465399265289307 0.04217039421200752 0.0010285450844094157 -0.043650709092617035 -32.62705612182617 -66.20307922363281 -83.77179718017578 -83.66068267822266 -68.00395965576172 -140.4663848876953 -85.58853149414062 -7.4749064445495605 -50.258358001708984 -131.0283966064453 -51.699527740478516 -66.08343505859375 -59.70611572265625 -78.96055603027344 -109.85121154785156 -48.708492279052734 3.3168509006500244 -45.80886459350586 -38.92422103881836 -122.10733795166016 -179.95945739746094 -87.26264953613281 -23.95342445373535 -35.26859664916992 -18.376462936401367 -41.99216079711914 -31.520313262939453 -24.43998146057129 -22.280616760253906 -22.959171295166016 -21.770153045654297 -26.057870864868164 -7.097799777984619 -12.575531959533691 -14.76254940032959 -19.249711990356445 -13.375686645507812 -11.105050086975098 -16.366655349731445 -10.756826400756836 -2.034083127975464 -8.373777389526367 -9.355246543884277 -7.021231651306152 -7.7984819412231445 -2.966801166534424 -5.178340435028076 -7.263123989105225 36.4459114074707",
"-0.01659970171749592 -0.017218995839357376 -0.06567400693893433 0.06482278555631638 0.0012675190810114145 0.012547400780022144 0.05141688138246536 -0.01504932064563036 4.634992599487305 1.6232811212539673 11.370087623596191 2.3960089683532715 2.0877020359039307 -22.4300594329834 15.764618873596191 -19.035810470581055 3.4039387702941895 4.018660068511963 9.584868431091309 0.7773749828338623 12.715325355529785 -19.75523567199707 2.2047152519226074 -23.543697357177734 2.472892999649048 5.6646552085876465 7.940171718597412 -2.8108716011047363 17.032114028930664 -29.306978225708008 11.191919326782227 -17.49500846862793 -6.911118507385254 6.933673858642578 -4.893106937408447 14.71569538116455 17.965843200683594 -7.812532424926758 3.50410532951355 -5.0193891525268555 -13.589754104614258 13.407564163208008 20.943571090698242 8.95616626739502 22.30497932434082 3.163696527481079 -46.967994689941406 18.21886444091797 4.224299907684326 13.405572891235352 -22.08984375 14.359354019165039 9.947168350219727 73.4624252319336 3.206726312637329 26.196794509887695 0.05406145378947258 -0.012930764816701412 0.04373598098754883 0.04043467715382576 0.04143849015235901 0.009284392930567265 -0.034691646695137024 0.044902581721544266 4.461114883422852 11.75953483581543 6.306231498718262 8.830686569213867 -21.113178253173828 -7.629713535308838 1.546015977859497 7.249221324920654 -15.124343872070312 -8.662833213806152 -31.678857803344727 1.0933787822723389 -6.422591686248779 0.6077643632888794 3.381795883178711 2.4248275756835938 -82.42281341552734 -6.265611171722412 -11.436141967773438 -2.969015598297119 -15.118078231811523 5.684323787689209 17.31443214416504 -3.1149513721466064 -95.74907684326172 -120.21754455566406 -17.793315887451172 -41.58314514160156 -44.42863464355469 -3.7833986282348633 10.177788734436035 -1.0857739448547363 -51.03849792480469 -137.44981384277344 -48.69175338745117 -22.16730308532715 -75.69877624511719 -46.06624221801758 21.578935623168945 -63.093685150146484 53.58897018432617 22.62097930908203 -83.70387268066406 2.4110825061798096 -139.55099487304688 -49.921085357666016 6.309504508972168 78.0049819946289 -0.0574268214404583 0.04304589331150055 -0.04401017725467682 -0.06161914020776749 -0.058687563985586166 -0.032822005450725555 0.04193148389458656 -0.020036345347762108 12.029253005981445 -46.399391174316406 -67.67805480957031 2.4730119705200195 19.209217071533203 -20.654098510742188 46.79190444946289 6.894440174102783 -10.362433433532715 -10.504317283630371 -9.686178207397461 -4.748666763305664 0.8530864715576172 -66.13320922851562 53.257171630859375 11.742236137390137 -3.6012167930603027 8.408856391906738 -3.89099383354187 2.494333505630493 1.5928319692611694 12.970787048339844 19.229778289794922 3.8871304988861084 0.14874643087387085 1.4706579446792603 0.23958733677864075 -6.691518306732178 -11.254263877868652 0.41907963156700134 12.631059646606445 10.085601806640625 4.605750560760498 4.902827739715576 9.76519775390625 11.000295639038086 -4.720067977905273 -10.744922637939453 5.859601974487305 -1.7125422954559326 2.926828622817993 10.757925987243652 7.616453170776367 6.123578071594238 -7.310762882232666 -6.97916841506958 2.686763286590576 1.8076757192611694 0.03139987587928772 0.00959288515150547 -0.030189570039510727 0.040872905403375626 -0.03671995922923088 0.049027588218450546 -0.0122457817196846 -0.05406905338168144 -37.42466354370117 16.47011375427246 -11.309465408325195 -12.32388973236084 5.169835090637207 -65.1141357421875 46.732810974121094 16.388540267944336 16.86919593811035 6.0240020751953125 17.721820831298828 -53.3695182800293 -129.6592559814453 -39.77201461791992 -1.2415642738342285 8.998821258544922 -4.203650951385498 -127.33649444580078 15.724174499511719 4.988117694854736 18.10285186767578 -9.370018005371094 22.093358993530273 10.364518165588379 15.146819114685059 -123.28330993652344 4.853586673736572 12.364182472229004 5.565319061279297 11.10129165649414 6.315987586975098 6.287646770477295 -32.11894607543945 12.260080337524414 -86.24139404296875 3.88183856010437 3.7622087001800537 15.84747314453125 -3.4723899364471436 12.330733299255371 12.10191822052002 -71.18170928955078 -35.59455108642578 -0.32529571652412415 9.814367294311523 0.20307627320289612 -3.402916193008423 -8.994019508361816 -14.569929122924805",
